-0.06514647603034973,0.08560872822999954,-0.07028758525848389,0.04314552620053291,0.043747805058956146,-0.01408009510487318,0.04673091322183609,-0.039029430598020554,0.07606827467679977,-0.03791428357362747,0.08100282400846481,-0.0324770025908947,0.05204043537378311,-0.046341121196746826,-0.048064954578876495,-0.06942326575517654,-0.09160389751195908,0.028001965954899788,-0.04516665264964104,-0.0666372999548912,-0.027336571365594864,-0.005558643955737352,0.013942086137831211,0.0219714418053627,0.08451230823993683,0.03688330575823784,0.06942740082740784,-0.05285048484802246,0.06345554441213608,0.04779576137661934,-0.004868464078754187,0.07515283674001694,-0.07886481285095215,-0.02160896174609661,-0.04893486946821213,0.02905169501900673,0.02231757715344429,-0.018277255818247795,-0.025984546169638634,0.08514946699142456,0.05891209840774536,0.004256377927958965,0.06721675395965576,-0.0004704414459411055,0.0794200748205185,0.03802729770541191,-0.0022632067557424307,0.01117798313498497,-0.050233177840709686,-0.010116753168404102,-0.020258987322449684,-0.08033817261457443,-0.024078497663140297,-0.05151596665382385,0.015549497678875923,0.021717209368944168,0.06214965134859085,-0.023146430030465126,0.014313014224171638,-0.010866915807127953,-0.07055617868900299,-0.036020632833242416,0.0500938855111599,-0.0019532940350472927,0.008274530991911888,-0.05422046408057213,0.08588976413011551,0.0745130255818367,0.02273876592516899,0.0243612602353096,0.0582800917327404,-0.07382433116436005,0.0004230794438626617,0.07768876105546951,-0.0028014082927256823,-0.03205015882849693,-0.08592180162668228,0.03127233311533928,0.01101242657750845,-0.04939651116728783,0.027663687244057655,-0.004073925781995058,0.08272551745176315,0.08313842117786407,-0.05304667353630066,-0.05965016037225723,-0.0287914015352726,0.042365968227386475,0.028033161535859108,0.027449440211057663,0.01830299012362957,-0.019474804401397705,-0.007126952987164259,-0.07950188964605331,0.07807734608650208,-0.028691638261079788,-0.002059796592220664,-0.007125742733478546,-0.07484466582536697,-0.05486758053302765,-0.08746066689491272,0.06738577783107758,0.04807930812239647,0.04406451806426048,0.020235270261764526,0.0555741973221302,0.07959628850221634,0.02085663378238678,-0.06156310439109802,0.02556360885500908,-0.007480681873857975,0.038927655667066574,0.06926929950714111,0.03737260773777962,-0.005017229355871677,0.034928493201732635,0.07980062067508698,-0.04218098148703575,-0.03775898367166519,-0.06937997788190842,-0.03129483759403229,0.058476682752370834,0.04253312200307846,0.05699772760272026,-0.069852314889431,-0.052671775221824646,0.02090492844581604,0.08693233877420425
-0.02208137884736061,0.024415956810116768,-0.07120627909898758,0.08651989698410034,0.045862991362810135,0.06593182682991028,0.07947559654712677,0.004175199195742607,0.08544597029685974,-0.0641578957438469,0.022688280791044235,-0.07832518219947815,0.04995539039373398,-0.03901025280356407,-0.08680758625268936,0.034057315438985825,0.05169380083680153,-0.0025324239395558834,-0.05389366298913956,-0.0894942656159401,-0.06523536890745163,0.060690514743328094,-0.07569047063589096,-0.03509129583835602,-0.06969363242387772,0.08260923624038696,0.06933970749378204,0.0674462541937828,0.013034983538091183,0.014714913442730904,0.023708414286375046,-0.014531714841723442,0.06061495840549469,0.017950180917978287,0.08463025093078613,-0.08071936666965485,-0.0059076398611068726,0.057162340730428696,0.05927975848317146,0.06486865133047104,0.06728506833314896,-0.07650519162416458,-0.008729028515517712,-0.04933900386095047,0.05653383210301399,-0.06940336525440216,-0.07187819480895996,0.0732886865735054,0.02916892245411873,-0.0640505775809288,0.01154127437621355,-0.028176352381706238,0.0036495202220976353,-0.08734912425279617,0.025516275316476822,-0.04054491966962814,0.005163922440260649,-0.008258468471467495,-0.0770835354924202,-0.005804686341434717,-0.009033341892063618,0.0652015209197998,0.06912866234779358,-0.07912660390138626,-0.06756334006786346,0.07039275765419006,-0.0669332966208458,0.04441847279667854,0.015502146445214748,-0.06521057337522507,-0.008250107057392597,-0.015242953784763813,0.04850633069872856,-0.08234396576881409,0.05769693851470947,-0.08359993994235992,-0.03192632272839546,0.09079164266586304,-0.07885851711034775,-0.03731677681207657,-0.00588254164904356,-0.03267257660627365,0.07443023473024368,-0.053731769323349,0.0674574002623558,0.06615307927131653,-0.04355771839618683,-0.04729282855987549,0.0495968796312809,-0.030170835554599762,-0.005600388161838055,-0.08973345160484314,-0.043242134153842926,0.0005715546431019902,0.0010997916106134653,0.003763197222724557,-0.013602516613900661,0.049600258469581604,-0.0747845321893692,-0.04672599956393242,-0.008829954080283642,-0.023495709523558617,0.03830660879611969,-0.04369072616100311,-0.07309263199567795,-0.06290195137262344,-0.030909519642591476,0.018749160692095757,-0.07360038161277771,-0.003061352763324976,-0.0666927918791771,-0.010363351553678513,-0.08866527676582336,0.061366207897663116,-0.08202546834945679,0.07347584515810013,0.00991494208574295,-0.007029053755104542,-0.04681376740336418,-0.010524029843509197,-0.07699446380138397,0.03973491117358208,0.024168135598301888,-0.09075787663459778,-0.02272336184978485,0.0688004121184349,0.0701289176940918,0.050253722816705704
 -0.05875205248594284,0.07383811473846436,0.04846494272351265,0.05816590413451195,-0.0812515988945961,-0.08492609858512878,0.08405733108520508,-0.04000265896320343,0.037576526403427124,0.07944914698600769,0.05443501099944115,0.006492734886705875,0.02440289407968521,-0.003004400059580803,-0.05290601775050163,-0.07842481136322021,-0.018098555505275726,-0.019635574892163277,0.08742222189903259,-0.017007431015372276,-0.0018312500324100256,-8.967750909505412e-05,-0.06424607336521149,-0.06877844780683517,-0.06795872747898102,-0.029010670259594917,-0.04968465864658356,0.022636471316218376,-0.031091302633285522,-0.07433655112981796,-0.02593974396586418,-0.06074235215783119,0.06547654420137405,-0.043576017022132874,0.045813530683517456,0.032043322920799255,-0.05743248760700226,-0.02360229194164276,0.0803709551692009,0.03537704795598984,-0.007077546324580908,0.024858178570866585,-0.0904049426317215,0.008098375983536243,0.0864870622754097,0.03870203718543053,0.06200200319290161,0.03912534937262535,0.03853950649499893,-0.07664448022842407,-0.07688380032777786,0.06264631450176239,0.08069843798875809,0.07834169268608093,-0.046030957251787186,0.07918179035186768,0.01724153943359852,0.0894174873828888,-0.0610026940703392,-0.08449538797140121,-6.138926983112469e-05,0.04682218283414841,0.03983297571539879,-0.08372961729764938,-0.01843663863837719,-0.07259458303451538,0.04266774281859398,0.04285542666912079,0.041696999222040176,-0.06318172812461853,0.02346954680979252,0.08690141886472702,0.06941627711057663,-0.04505804553627968,-0.03561379760503769,-0.03817035257816315,-0.048851337283849716,-0.0604754202067852,-0.04257621988654137,-0.09122312068939209,-0.017796341329813004,-0.08573991060256958,-0.08363410085439682,0.06351874023675919,-0.026384074240922928,-0.018166985362768173,0.05334113538265228,-0.06623779237270355,0.029618162661790848,0.0670171007514,0.035617318004369736,-0.06185891479253769,0.05448072403669357,-0.0391869954764843,0.01821507140994072,-0.011591339483857155,0.08552197366952896,-0.08224319666624069,0.015018166042864323,0.08843836933374405,0.01669592224061489,-0.05009421333670616,-0.027839332818984985,0.025651246309280396,-0.012462811544537544,-0.06753545254468918,0.01942495070397854,0.03430357575416565,-0.005338218528777361,-0.049942728132009506,0.04427437484264374,-0.0823495090007782,0.013857530429959297,-0.07691743969917297,0.04865960404276848,-0.02304420992732048,-0.03904205560684204,0.0123639777302742,0.08811203390359879,0.003781014820560813,0.036556176841259,0.0770975723862648,-0.019804470241069794,-0.06540127098560333,-0.0187199916690588,-0.013453304767608643,-0.052051886916160583,-0.0025909419637173414
 0.06738753616809845,0.014673472382128239,0.0005740078049711883,-0.004903608001768589,-0.06656403839588165,-0.07943999022245407,-0.06284334510564804,-0.050720375031232834,0.0954747423529625,-0.059268347918987274,0.059614766389131546,0.017755191773176193,0.008059853687882423,0.0067758141085505486,0.0114238066598773,-0.015807772055268288,-0.059242166578769684,0.07212259620428085,0.050892576575279236,0.009323167614638805,0.03763506934046745,0.013144055381417274,0.0773579403758049,0.06074417009949684,0.03613046929240227,0.07039330899715424,0.015436222776770592,-0.021561389788985252,-0.05733710527420044,0.07909037917852402,-0.05594246834516525,-0.07903057336807251,0.0498952753841877,0.027987835928797722,0.00350372982211411,-0.059599172323942184,0.08441741019487381,-0.04310544580221176,0.05340816080570221,0.0691717341542244,0.018478646874427795,0.0821697860956192,0.08023247867822647,-0.035456426441669464,-0.08390644192695618,0.0004278465348761529,0.04265257716178894,-0.035463277250528336,-0.001677350141108036,0.06166238337755203,0.032865289598703384,-0.05345281958580017,0.0036465544253587723,-0.08853001147508621,0.06550785899162292,0.024890728294849396,0.0832139328122139,-0.06805598735809326,0.03568977862596512,-0.08175544440746307,-0.011917646043002605,-0.014134419150650501,0.026530876755714417,0.08119764924049377,0.07633006572723389,0.010620427317917347,-0.010504466481506824,-0.03071058914065361,0.03922080621123314,0.006237116176635027,0.0776570588350296,0.03941379487514496,-0.01891704462468624,0.08778250962495804,-0.061739373952150345,-0.06804978847503662,-0.0064496835693717,-0.00729035958647728,0.008920880034565926,0.04695289209485054,0.06457756459712982,0.08839503675699234,0.016460146754980087,0.035329632461071014,-0.04417681694030762,0.05955438315868378,0.07852344214916229,0.03891628980636597,-0.07432211935520172,0.04608975350856781,-0.042276982218027115,-0.02136610634624958,0.03329018875956535,0.010138966143131256,0.019853344187140465,-0.05829867720603943,-0.07340691983699799,0.029708707705140114,-0.03366842865943909,0.04870237037539482,0.08461330085992813,0.010749485343694687,-0.08817113190889359,-0.037720128893852234,0.02315208502113819,0.00338766654022038,0.07270147651433945,0.05227025970816612,-0.07054711133241653,0.0076598431915044785,0.049429651349782944,0.06521323323249817,-0.0528944730758667,-0.04739034175872803,0.05572618544101715,0.05302266776561737,0.033668432384729385,-0.037378184497356415,-0.015768690034747124,0.00866980105638504,-0.057094886898994446,-0.008648164570331573,0.019780654460191727,-0.0449991449713707,-0.0005250540561974049,0.03508136793971062,0.0302810650318861,0.034172605723142624
 -0.05658730864524841,0.035616032779216766,-0.07305175811052322,0.009370789863169193,-0.003208459820598364,0.08699330687522888,0.07207630574703217,-0.04891102388501167,-0.028939982876181602,0.027567941695451736,0.0373133160173893,-0.09856832772493362,-0.002661710837855935,-0.051036007702350616,0.04073939099907875,-0.01940225251019001,0.0014317557215690613,0.05039217695593834,-0.05500708520412445,-0.027312396094202995,0.0636470764875412,-0.006689442787319422,-0.07925880700349808,-0.046260662376880646,-0.052910685539245605,0.04507403448224068,-0.02924647554755211,0.015379582531750202,0.05770551785826683,-0.004378791432827711,0.0724233090877533,0.030255654826760292,0.011393078602850437,0.06345121562480927,-0.026866504922509193,-0.014815748669207096,0.00560881057754159,0.03949107974767685,-0.017838655039668083,-0.014686094596982002,0.015602911822497845,0.02718958631157875,-0.072801373898983,0.03111250512301922,-0.04160802811384201,-0.09538799524307251,-0.022861670702695847,0.008019094355404377,-0.027519607916474342,0.060856420546770096,-0.0008125953027047217,0.06621848791837692,-0.08299443870782852,0.07607492059469223,0.018606700003147125,-0.049650900065898895,-0.05259234458208084,-0.07119382172822952,-0.056957364082336426,-0.04974375665187836,-0.05251473933458328,-0.024670355021953583,-0.004084092564880848,-0.05614679306745529,-0.04185051843523979,0.05283934250473976,0.09924018383026123,-0.04323841258883476,-0.07873371243476868,0.08344825357198715,-0.048981595784425735,0.047144342213869095,0.06984985619783401,0.015175609849393368,-0.03787340223789215,-0.01992734707891941,0.08237862586975098,0.061776548624038696,0.07227934151887894,0.09801902621984482,0.046857818961143494,0.05086880549788475,-0.03102743811905384,-0.010335778817534447,-0.08928995579481125,-0.045486874878406525,0.005983456037938595,-0.05302014201879501,0.03456497937440872,-0.06833810359239578,-0.018158016726374626,0.0663309171795845,0.04310530424118042,-0.07344258576631546,-0.08090586215257645,0.04491668567061424,0.0368066169321537,0.07054699212312698,-0.07511141151189804,-0.06697388738393784,-0.03314356878399849,-0.05165456235408783,-0.03146033361554146,0.027890659868717194,-0.07736123353242874,-0.001307544531300664,0.06639126688241959,0.05382386967539787,0.009340040385723114,0.06525854021310806,-0.09783267229795456,0.034923434257507324,-0.007235608529299498,0.05986602604389191,-0.081503726541996,-0.04200277850031853,0.031076980754733086,-0.036450982093811035,-0.02068377658724785,-0.017843326553702354,0.05932145193219185,0.06579545140266418,-0.0602961927652359,-0.031323421746492386,0.06664968281984329,0.07787130773067474,-0.09027506411075592,-0.03757943585515022
 -0.07973194867372513,0.011467518284916878,-0.008430683985352516,-0.012432334013283253,0.08427031338214874,-0.008819780312478542,0.018501482903957367,-0.004310806281864643,0.0833500325679779,0.018366016447544098,-0.06294403225183487,0.02526029944419861,0.021413059905171394,-0.055707693099975586,-0.046165358275175095,-0.040351446717977524,0.014528565108776093,0.05310128256678581,-0.015889130532741547,0.0028323354199528694,-0.01315674651414156,-0.08835604786872864,-0.014407467097043991,0.08277581632137299,-0.025288434699177742,-0.05314752459526062,-0.05788906291127205,0.021987348794937134,-0.028164256364107132,0.07763805240392685,-0.051716431975364685,0.0932067483663559,0.01780637539923191,0.0005060453549958766,-0.01791653037071228,0.0013787824427708983,-0.00641922140493989,0.07147468626499176,-0.08143970370292664,-0.041487082839012146,-0.032145366072654724,-0.002334731398150325,0.06591750681400299,-0.03532467409968376,-0.025113064795732498,-0.07819361239671707,0.05887143686413765,-0.0290373507887125,-0.026306578889489174,-0.057363320142030716,0.02264554053544998,-0.0732676312327385,-0.04179427772760391,-0.08252342790365219,0.02676583267748356,-0.030677136033773422,0.06206546351313591,0.0063904691487550735,-0.024943549185991287,-0.02122339978814125,0.08039586991071701,0.07887885719537735,0.09747893363237381,-0.07129732519388199,-0.09581907093524933,0.053439412266016006,0.03805268183350563,0.07498294860124588,-0.044287409633398056,-0.01835758052766323,0.09768519550561905,0.07712235301733017,-0.003197841113433242,-0.09941154718399048,0.0165894515812397,-0.06316424906253815,-0.09217383712530136,0.06739310175180435,0.03404043987393379,-0.014530831016600132,0.002895628334954381,0.05277976393699646,0.02460472472012043,-0.03277317062020302,-0.022082876414060593,-0.0013936007162556052,0.0835074633359909,-0.09800538420677185,-0.014273574575781822,0.07671725004911423,-0.05289032310247421,0.0606142058968544,-0.04627178981900215,-0.058295268565416336,-0.05281958729028702,-0.041136179119348526,-0.06648124754428864,0.06562120467424393,0.04375004395842552,-0.0011406100820749998,-0.05766906216740608,-0.058978371322155,-0.025313260033726692,-0.04194779694080353,0.019761184230446815,-0.07410402595996857,-0.06972024589776993,-0.04134831205010414,0.04203682020306587,-0.04526303708553314,-0.02157318778336048,-0.07728978246450424,0.05146917700767517,0.10192666947841644,-0.06457599997520447,0.05660213530063629,0.011203979142010212,0.07198997586965561,-0.02516787499189377,0.040140923112630844,0.028842296451330185,-0.0392952635884285,-0.015050334855914116,0.03566427528858185,-0.08940593898296356,0.027444757521152496,0.016335710883140564,0.021072495728731155
 0.02502286806702614,0.09364151209592819,-0.001656757085584104,-0.062016841024160385,0.031278811395168304,-0.03850976750254631,-0.08046060800552368,-0.013367041014134884,-0.034004244953393936,0.053396496921777725,0.041250620037317276,-0.011128242127597332,0.08997891843318939,-0.041133128106594086,-0.06686130911111832,0.02822716534137726,0.04624779894948006,-0.0036174971610307693,-0.0725453570485115,-0.061373986303806305,0.05393454059958458,-0.0315219946205616,0.027888456359505653,0.050958868116140366,0.08773467689752579,0.053721822798252106,-0.09270334243774414,-0.04259327054023743,-0.0021240722853690386,-0.006599463056772947,-0.008687065914273262,-0.06321059167385101,0.09037208557128906,-0.05510638654232025,0.015323660336434841,-0.00156876677647233,-0.010684676468372345,0.020019209012389183,-0.05365960672497749,-0.028270220384001732,0.02846456877887249,0.08486384898424149,0.013567810878157616,0.08101830631494522,0.06443540006875992,-0.041802890598773956,-0.05595756322145462,0.0003540649777278304,-0.03558238968253136,-0.07170341908931732,0.06699631363153458,0.035227708518505096,-0.05548170581459999,0.0034096897579729557,-0.09391354024410248,-0.06770379841327667,-0.032918781042099,-0.07934901863336563,0.007899679243564606,0.04088543727993965,-0.05702558159828186,0.014342247508466244,-0.07834383845329285,-0.02274269610643387,0.05072932317852974,0.05475243180990219,-0.0007716724649071693,-0.016554484143853188,-0.006441562902182341,-0.019053742289543152,0.04792289063334465,-0.07549396902322769,-0.03968194127082825,0.0032768440432846546,-0.03003433346748352,-0.059363700449466705,-0.013784625567495823,-0.08360901474952698,0.01920764520764351,0.07412885874509811,-0.07462138682603836,-0.08214428275823593,-0.02168126404285431,0.0596981942653656,-0.08149739354848862,0.045531559735536575,0.00535540608689189,0.025525396689772606,0.027704259380698204,0.044575657695531845,0.0705748051404953,-0.06555306166410446,0.08650065958499908,-0.033959437161684036,0.04619154706597328,0.013819548301398754,0.028309086337685585,0.06291340291500092,0.09102204442024231,-0.0239254217594862,-0.007773208431899548,0.045069918036460876,0.035806745290756226,-0.0898372009396553,-0.033933334052562714,-0.08339682966470718,-0.009760414250195026,0.004324956797063351,0.061234451830387115,0.0073266224935650826,0.08473817259073257,-0.07908439636230469,-0.032764554023742676,0.029656553640961647,0.07581185549497604,0.08717886358499527,-0.04524574428796768,-0.08485472947359085,-0.008579576388001442,-0.04527195915579796,-0.00820054579526186,0.06446290761232376,-0.05873623490333557,-0.015651455149054527,0.02931566908955574,-0.04482542350888252,-0.07820087671279907,0.022519443184137344
 -0.02116158790886402,0.08922378718852997,-0.01626693457365036,0.045085545629262924,0.028714211657643318,-0.07288409769535065,-0.0818500742316246,-0.04313121736049652,-0.04842466861009598,0.04008103907108307,0.08255798369646072,-0.07424209266901016,-0.014149634167551994,-0.057179734110832214,0.01228953804820776,-0.005631617736071348,0.003443334950134158,0.051145318895578384,-0.01888810098171234,0.08578121662139893,-0.009831709787249565,0.08350825309753418,-0.004335841629654169,-0.03480757400393486,-0.036186475306749344,0.07690981775522232,0.07326843589544296,0.030825013294816017,0.024795420467853546,-0.0746084526181221,0.06044255942106247,-0.07443120330572128,-0.08801357448101044,-0.06319904327392578,0.09112553298473358,-0.09714576601982117,0.04790017753839493,0.03530548885464668,0.06742913275957108,0.017739692702889442,0.006519249640405178,-0.08467449247837067,-0.06660187244415283,-0.08039692044258118,-0.038871776312589645,-0.006271453108638525,-0.02597132697701454,-0.010459777899086475,0.037612494081258774,-0.09212210029363632,-0.030038541182875633,-0.02598443068563938,0.0045160031877458096,0.008194916881620884,-0.08125703781843185,0.05439140275120735,-0.016191255301237106,-0.07729364186525345,0.0030986324418336153,0.0597265362739563,-0.05590623617172241,0.01427107211202383,0.05103794112801552,-0.015428980812430382,-0.02322823368012905,0.06142217665910721,-0.04754886031150818,0.06524736434221268,-0.024921966716647148,0.0807558000087738,0.10404463112354279,0.025740565732121468,0.010059958323836327,0.06987141817808151,-0.028018895536661148,-0.04532591253519058,0.025843335315585136,-0.011628623120486736,-0.03002842515707016,0.03204268962144852,-0.0741373673081398,0.06869425624608994,-0.05648558586835861,0.047108232975006104,-0.0715211033821106,0.033724840730428696,0.08865153044462204,-0.024358494207262993,0.01023747306317091,-0.06144309416413307,0.009006122127175331,-0.03969796001911163,-0.049665339291095734,-0.09391025453805923,-0.009701629169285297,-0.06843234598636627,0.012968831695616245,-0.013206307776272297,-0.09936901181936264,0.0679675042629242,0.05004585534334183,-0.08600912988185883,0.047662153840065,-0.07839832454919815,-0.04427717998623848,0.024241266772150993,-0.024536363780498505,-0.058921996504068375,0.04005839303135872,0.07303042709827423,-0.04485958442091942,0.02165212482213974,0.07136675715446472,0.08945638686418533,-0.055626679211854935,0.04838765040040016,0.04615100473165512,0.09806346148252487,-0.021771041676402092,0.03430265188217163,-0.07930970191955566,0.030669182538986206,-0.004948053043335676,-0.01284144539386034,0.07237239927053452,-0.06150200217962265,0.0050736707635223866,0.07673051208257675
 0.0648065060377121,0.08183421194553375,-0.05716755986213684,-0.048784978687763214,0.010960232466459274,-0.06275201588869095,-0.05756904184818268,0.07564087212085724,0.10187868028879166,-0.01721823774278164,0.03220019116997719,0.04098202660679817,0.08257313072681427,-0.005121670663356781,0.004997885785996914,-0.0875304713845253,-0.0005810071597807109,-0.04520262032747269,0.05498874932527542,0.015215001069009304,-0.08234444260597229,0.0317874513566494,-0.052743811160326004,-0.06680309772491455,0.10551746189594269,-0.039573121815919876,-0.03246362879872322,-0.007535749580711126,0.10989030450582504,0.0854911357164383,-0.03960006311535835,0.0546603724360466,-0.053014788776636124,-0.029698077589273453,-0.058951158076524734,-0.08416440337896347,0.01697840914130211,-0.023880502209067345,-0.046715475618839264,0.03222297504544258,0.039315689355134964,-0.04111797362565994,-0.026546519249677658,0.020627960562705994,-0.09672429412603378,0.00033169006928801537,-0.1173531785607338,-0.06954456865787506,-0.10301486402750015,-0.00886731967329979,0.017642421647906303,0.11784421652555466,0.0019861403852701187,0.004543349612504244,0.0209145937114954,0.0057907369919121265,0.07504633069038391,0.04230640083551407,0.004875596612691879,-0.048471998423337936,0.061259329319000244,0.03439604490995407,0.046870067715644836,-0.0874701663851738,-0.04881134629249573,0.03849635273218155,-0.05808987468481064,-0.05270763859152794,-0.04106641188263893,0.04854719713330269,-0.03537055477499962,0.000890379655174911,0.04267721250653267,-0.04489168897271156,0.09546059370040894,-0.05815089866518974,-0.06715591996908188,-0.024454087018966675,0.02365923300385475,0.04595514014363289,0.11343975365161896,-0.010424979031085968,0.059221260249614716,0.05023451894521713,0.023353202268481255,0.024547575041651726,-0.04306459426879883,-0.052688371390104294,0.03233952447772026,0.021160421893000603,-0.05877074971795082,0.053932469338178635,0.08344613015651703,-0.0523393452167511,-0.09546032547950745,-0.037726838141679764,-0.03695788234472275,-0.0484585203230381,-0.09670526534318924,0.02479095757007599,-0.036409396678209305,-0.061950281262397766,0.00038496984052471817,-0.0037118380423635244,0.03326890990138054,-0.028541550040245056,-0.005260351579636335,0.012642495334148407,0.09051566570997238,-0.08818860352039337,-0.1212509498000145,-0.003613512497395277,0.022100934758782387,0.10067825019359589,-0.014715463854372501,-0.01769328862428665,0.08165514469146729,-0.021238667890429497,-0.012863202020525932,-0.005062001757323742,-0.048051025718450546,0.08916079252958298,0.05375345051288605,-0.014310607686638832,-0.07805999368429184,0.07348813116550446,-0.03443773090839386,0.022466078400611877
 -0.0172630213201046,-0.04492439329624176,-0.043260928243398666,0.057704415172338486,-0.10507606714963913,-0.0983957052230835,0.03250822052359581,0.0602697879076004,0.11609474569559097,-0.08847950398921967,0.0040016621351242065,0.026662789285182953,0.10497043281793594,0.0452076755464077,0.08411520719528198,-0.10214785486459732,0.006796641740947962,0.11317963898181915,0.04981876537203789,0.059032440185546875,0.03395505249500275,0.0489896722137928,0.057209648191928864,-0.05508334934711456,0.0016732563963159919,-0.0997198298573494,0.08194366842508316,-0.011945328675210476,-0.01714399829506874,0.04378402605652809,-0.06613222509622574,0.03396599739789963,0.05161407217383385,-0.08126417547464371,-0.04548659548163414,-0.08180531114339828,-0.003313392400741577,0.0706682950258255,-0.0526018925011158,-0.0344296358525753,0.07235138863325119,0.022585198283195496,-0.03350317105650902,-0.010884569026529789,0.08980968594551086,-0.08022096753120422,0.016998358070850372,-0.005486832000315189,-0.05899651721119881,0.022232554852962494,-0.09378082305192947,0.022306600585579872,-0.08522646129131317,0.0798523873090744,-0.03227273374795914,0.016998786479234695,0.09310247749090195,0.0513305701315403,0.040693365037441254,-0.07422628998756409,-0.030104991048574448,-0.033230915665626526,0.001124924630858004,-0.04497544467449188,-0.07019570469856262,-0.0031839620787650347,0.05730681121349335,-0.03685785084962845,0.060786742717027664,-0.04341411218047142,0.09579706192016602,-0.055811718106269836,-0.07604736089706421,-0.05801808461546898,0.1007176861166954,0.05648096650838852,-0.06550183892250061,0.03710106387734413,0.03545136749744415,0.03233316168189049,-0.05839664861559868,0.0762936919927597,-0.03402917459607124,0.0419887937605381,-0.012176129035651684,0.004862109664827585,-0.08237939327955246,-0.04360596835613251,-0.06292004138231277,0.074246846139431,-0.08259784430265427,0.013827696442604065,0.0673082247376442,0.0977526307106018,0.07498906552791595,-0.051182981580495834,0.06999305635690689,-0.09799426048994064,0.04777108505368233,0.09422839432954788,0.022715892642736435,-0.03031504526734352,-0.014396704733371735,-0.0010305690811946988,0.07052287459373474,0.038347698748111725,-0.09979019314050674,-0.0743681862950325,-0.009918798692524433,-0.11818493157625198,-0.06487637758255005,0.0030757635831832886,0.09814127534627914,-0.0007391091785393655,-0.06676927208900452,-0.10419204086065292,0.02629944123327732,-0.10366768389940262,-0.026416588574647903,-0.07661303877830505,0.030411379411816597,-0.05117001384496689,0.1159633919596672,-0.007533086929470301,-0.03177230805158615,-0.07717864960432053,0.08177182823419571,0.0236153956502676
 -0.025910522788763046,0.019074387848377228,-0.08626987785100937,-0.07556409388780594,0.03931872919201851,0.07116576284170151,-0.07492935657501221,0.019759315997362137,0.09640885889530182,0.04453490674495697,0.07680939137935638,0.011358549818396568,0.07361806929111481,-0.035023100674152374,-0.022629443556070328,0.017782753333449364,-0.0030364389531314373,0.056368011981248856,-0.08367864787578583,-0.07026218622922897,-0.023733515292406082,0.016370635479688644,0.04397611692547798,0.018293580040335655,0.0030527336057275534,0.04505074769258499,0.036127425730228424,-0.05533609911799431,0.05799630656838417,0.0837220847606659,-0.04490388184785843,0.042073022574186325,-0.06875462830066681,0.05335824936628342,0.03293648734688759,0.016897762194275856,0.09827615320682526,0.07035896182060242,-0.010889417491853237,0.07271455228328705,0.1033291146159172,-0.07787708193063736,0.03869239613413811,0.03966377303004265,0.0031753373332321644,-0.07388606667518616,0.05490364879369736,0.08627835661172867,-0.031168995425105095,-0.051641013473272324,0.06774404644966125,-0.06896515935659409,0.061900317668914795,0.044199150055646896,-0.09211166203022003,0.0912778452038765,-0.06005337834358215,0.059110190719366074,0.0720038041472435,0.06503741443157196,-0.06506110727787018,0.05051690712571144,0.06972265243530273,0.05060882121324539,0.04752610623836517,0.05347276106476784,0.07307447493076324,-0.07455942779779434,0.08172345906496048,-0.09045776724815369,0.06623534858226776,-0.028521129861474037,-0.08648601174354553,0.06927493214607239,0.06089985743165016,0.07397880405187607,0.03625860437750816,-0.01221159752458334,0.1037672683596611,-0.006254449021071196,0.0942235141992569,0.03698686882853508,0.09893716871738434,0.09770499914884567,-0.030866339802742004,-0.015137724578380585,-0.09053044021129608,0.007408859208226204,0.005385213997215033,0.01211506873369217,-0.058237429708242416,-0.03565003350377083,-0.05636274814605713,-0.07653225213289261,0.0374496690928936,0.05848070979118347,0.05573350936174393,0.017524952068924904,0.01044960506260395,-0.07378055155277252,-0.07129211723804474,-0.07089169323444366,-0.01936982572078705,0.04745699465274811,-0.05763943865895271,0.03124917671084404,-0.03029075637459755,-0.00955057330429554,-0.07744515687227249,-0.04084472358226776,0.06317945569753647,-0.026296254247426987,0.05544660612940788,0.006725978571921587,0.057343095541000366,0.04980573058128357,-0.008503613993525505,-0.013903767801821232,0.04802455008029938,-0.07440856099128723,0.08108368515968323,-0.0492808036506176,-0.041493840515613556,0.05317504331469536,-0.0925367921590805,-0.08561786264181137,0.0479927584528923,-0.07433225214481354
 0.02944132685661316,0.0890665128827095,0.06397460401058197,-0.0077275000512599945,-0.043142884969711304,-0.048467278480529785,0.05528011545538902,-0.030244633555412292,-0.07755249738693237,-0.025013303384184837,0.0015954826958477497,0.004448222927749157,0.035788536071777344,0.08445964753627777,-0.006441719364374876,-0.022461973130702972,-0.08286505192518234,0.0765775516629219,-0.008366502821445465,0.0018521695164963603,-0.03125949203968048,0.007010061293840408,-0.05901944637298584,0.010555802844464779,0.007538007106631994,-0.015360947698354721,-0.09381241351366043,-0.026158597320318222,0.07877480983734131,-0.03174968063831329,-0.08251950889825821,-0.0616343729197979,-0.040928784757852554,-0.021843235939741135,-0.03282294422388077,-0.0700274333357811,-0.039308615028858185,0.06315424293279648,-0.03705594688653946,0.03046301379799843,0.06765042245388031,-0.06605400890111923,-0.06809593737125397,-0.09256426990032196,-0.007715318817645311,-0.034532640129327774,-0.08928997814655304,-0.0696803629398346,0.036562029272317886,0.01148714404553175,-0.042548030614852905,0.007755656260997057,-0.009660042822360992,0.040438175201416016,0.03260969743132591,-0.0018190308474004269,-0.06951235234737396,0.048675380647182465,0.06825723499059677,-0.039082132279872894,-0.05845166742801666,0.022225135937333107,0.012530510313808918,-0.0764639601111412,-0.0016167317517101765,-0.03579336404800415,0.1342175304889679,0.09384730458259583,0.01971769519150257,0.07351601123809814,0.04210096225142479,-0.014826538041234016,-0.022937385365366936,-0.07300027459859848,0.016384582966566086,-0.06859827041625977,0.07102510333061218,-0.017121419310569763,-0.016332363709807396,-0.01825985312461853,-0.02985847368836403,-0.03001437894999981,0.09861551225185394,-0.03644215688109398,0.02873522788286209,0.04787660762667656,-0.007169998250901699,0.027213821187615395,-0.03929201513528824,0.08170539140701294,0.05747470259666443,0.0038348862435668707,-0.08403997123241425,-0.044154275208711624,-0.00438388017937541,0.0714138075709343,0.07441295683383942,-0.044029779732227325,-0.054547470062971115,0.056806229054927826,0.08107907325029373,-0.12116458266973495,-0.01475721038877964,-0.06873670965433121,-0.009621594101190567,-0.006635705474764109,-0.0042652650736272335,0.01954403892159462,0.01795535534620285,0.043144065886735916,-0.05455745756626129,0.01961863972246647,0.0708913803100586,-0.01361013762652874,0.09760501980781555,-0.06323006749153137,0.08853396773338318,0.08006200939416885,0.07548071444034576,0.08374737203121185,0.035486191511154175,0.059802670031785965,0.008864819072186947,0.031259793788194656,-0.07360731810331345,-0.05083491653203964,0.058386947959661484,-0.06705741584300995
 -0.0010044348891824484,-0.02422148734331131,-0.07260368019342422,-0.07113352417945862,0.07012083381414413,0.05470917373895645,0.08722948282957077,-0.06803528219461441,-0.005439382512122393,-0.02979392185807228,-0.03452839329838753,0.10355933010578156,0.07382216304540634,0.12475138157606125,-0.02823241986334324,0.007771151140332222,-0.0002952697977889329,-0.005121972877532244,0.002932279836386442,0.07433178275823593,-0.10661040246486664,0.013653243891894817,-0.046730294823646545,0.1270287185907364,0.03586403653025627,-0.10726489126682281,0.025581520050764084,0.10894760489463806,-0.020327448844909668,-0.03650674968957901,0.006758223287761211,0.0011892368784174323,0.08101547509431839,0.0597713328897953,0.061761874705553055,-0.1061311587691307,0.08822081238031387,0.06129799410700798,0.12649869918823242,0.029403595253825188,0.10506846010684967,-0.07988636940717697,0.02984795533120632,-0.07304161041975021,0.03210953250527382,0.03382618725299835,-0.08299282938241959,-0.02168460376560688,0.012690362520515919,0.04022486135363579,0.030847666785120964,0.05578543618321419,-0.00989113561809063,0.05509450286626816,0.006556437350809574,0.0896131694316864,0.0013606710126623511,0.0408908911049366,0.12490952759981155,0.018189845606684685,-0.0038325234781950712,0.05851847305893898,0.021974582225084305,-0.05595095828175545,-0.0241116713732481,-0.01081178430467844,0.009557492099702358,0.02444930374622345,-0.07619190216064453,-0.05645208805799484,0.12153922021389008,0.09954576194286346,-0.013156729750335217,-0.050542574375867844,0.1137198731303215,-0.08903004229068756,0.029645144939422607,0.007462253328412771,0.05428886413574219,-0.015719670802354813,0.08622194081544876,0.06513874232769012,0.06303665041923523,0.11773617565631866,-0.10814670473337173,-0.0024797655642032623,-0.04957880079746246,-0.03656072914600372,0.01740441843867302,-0.002923244144767523,0.04626439884305,0.038486041128635406,-0.061284199357032776,0.02676313742995262,0.07332755625247955,0.01831340789794922,0.049430277198553085,-0.017684513702988625,0.032608237117528915,0.02772393822669983,-0.024694841355085373,-0.019962141290307045,-0.0013678105315193534,-0.025407444685697556,-0.05595741793513298,0.049060042947530746,0.07941333204507828,0.005262312479317188,0.07572699338197708,-0.05307852849364281,-0.08126610517501831,0.010067298077046871,0.06543373316526413,0.013019279576838017,0.0337546207010746,0.00016498596232850105,0.07580654323101044,-0.006708128377795219,0.029342299327254295,0.0056781466118991375,-0.01231615711003542,-0.002114648697897792,0.1315329670906067,0.004446578212082386,0.031236346811056137,-0.06706974655389786,0.03422392159700394,-0.010647938586771488
 0.05157482996582985,-0.02729104831814766,0.0005995035753585398,-0.07827222347259521,-0.01827358454465866,-0.09154411405324936,0.09834782779216766,0.06861136853694916,0.06302760541439056,0.03608280420303345,-0.07877980917692184,-0.027009867131710052,0.026313211768865585,0.04258564114570618,0.006416717078536749,-0.07519667595624924,-0.04108605533838272,0.09175556153059006,0.037424810230731964,-0.04513256624341011,0.05308571085333824,0.09602261334657669,-0.0026495663914829493,0.005897694732993841,0.048645008355379105,-0.08357374370098114,0.013610920868813992,-0.011189835146069527,-0.0033074792008847,-0.03253881633281708,-0.094218909740448,-0.06137816235423088,-0.023471921682357788,-0.05127924680709839,-0.0440673902630806,-0.011505478993058205,-0.06320962309837341,0.004637145437300205,0.08134550601243973,0.0014299314934760332,0.10884096473455429,0.04432067275047302,-0.07760477811098099,-0.0008974275551736355,-0.016287565231323242,-0.07765337079763412,-0.08296115696430206,0.09060484915971756,-0.0015500247245654464,-0.061904218047857285,-0.04305686429142952,0.0106422184035182,-0.10533954203128815,0.08300431072711945,-0.11934707313776016,0.04386056587100029,0.014054915867745876,0.0030361737590283155,0.102726511657238,0.05268273875117302,-0.13891997933387756,0.0055249459110200405,0.14625005424022675,0.055234428495168686,-0.07512781769037247,-0.045313090085983276,-0.04613163694739342,-0.00842034351080656,0.08346458524465561,-0.05010032281279564,0.044024817645549774,0.03553386777639389,0.021015385165810585,-0.003790701972320676,0.01518859900534153,0.008164634928107262,0.07764661312103271,0.06828725337982178,-0.01587902568280697,0.020013300701975822,0.012187952175736427,-0.02506513148546219,0.08336818963289261,0.028553474694490433,-0.009074091911315918,-0.021181194111704826,-0.09106355905532837,0.003159496933221817,0.02076868712902069,0.004041445441544056,-0.0818200409412384,-0.0714925155043602,-0.04669874161481857,-0.019195634871721268,-0.0469210147857666,-0.09620700776576996,-0.0030040056444704533,0.003034353256225586,-0.09453865140676498,0.05724063888192177,-0.04813199117779732,-0.0003565037332009524,-0.0577995665371418,0.030614597722887993,-0.07938696444034576,-0.11553718149662018,-0.037302181124687195,0.0794534757733345,-0.11051131039857864,-0.029705079272389412,0.020277705043554306,0.03876316174864769,0.10327073931694031,0.057315826416015625,-0.08215291053056717,-0.0882597416639328,-0.044805146753787994,-0.004004050511866808,0.09025957435369492,-0.04382030665874481,-0.07717207819223404,0.04577883332967758,0.14302504062652588,-0.014682045206427574,0.05454599857330322,0.03365277126431465,0.0030254025477916002,0.010572588071227074
 0.040415260940790176,0.07939000427722931,0.05699281394481659,-0.08229988813400269,-0.09721876680850983,0.07093659043312073,-0.05586661025881767,0.09090252965688705,-0.04752100631594658,0.03002561256289482,0.05454086884856224,-0.022755250334739685,0.060042854398489,0.11519520729780197,-0.09656465798616409,-0.001562665100209415,-0.0193626806139946,0.018711170181632042,-0.0332162119448185,-0.027376744896173477,-0.03653733432292938,0.045415446162223816,0.026613697409629822,-0.060037605464458466,0.05251423269510269,-0.08215267211198807,0.07240975648164749,-0.07287511229515076,0.06204213574528694,-0.015787389129400253,-0.0761955976486206,0.07649601250886917,0.03038603812456131,-0.01999436691403389,0.09231351315975189,-0.058069389313459396,-0.04400896653532982,0.07958748936653137,0.007293892093002796,-0.030875278636813164,0.10064151138067245,-0.017091425135731697,-0.020188715308904648,-0.035997118800878525,0.0010563407558947802,0.04920424148440361,-0.0311641376465559,-0.00937691144645214,-0.04737212881445885,-0.007330762688070536,-0.07800815999507904,0.08062393218278885,-0.0163617841899395,0.05382551625370979,0.036472152918577194,0.11466673761606216,-0.01903243362903595,-0.02514420635998249,0.05116105452179909,0.02385568618774414,-0.05881853029131889,0.06639169156551361,-0.010692172683775425,0.08127504587173462,-0.05042624846100807,0.09217393398284912,0.11514900624752045,0.08725205808877945,0.08840086311101913,0.04755692556500435,-0.011335899122059345,-0.042172178626060486,-0.0870949774980545,0.08426743000745773,0.07100459933280945,-0.0054942951537668705,0.058798275887966156,0.08170805126428604,-0.01565861701965332,-0.020068595185875893,0.03604663908481598,-0.029167912900447845,0.08506812900304794,0.060363445430994034,-0.006766524165868759,-0.04481052607297897,-0.07972916960716248,-0.034045834094285965,0.04786531999707222,-0.04649481177330017,-0.02301502227783203,-0.024235248565673828,-0.04491160064935684,-0.038425154983997345,-0.06682178378105164,-0.08074615150690079,-0.06143162027001381,-0.00541866198182106,-0.005207824520766735,-0.006510675419121981,0.04027719050645828,0.01028605829924345,-0.048111289739608765,0.029081547632813454,0.049072351306676865,0.015760818496346474,-0.06682993471622467,0.06682254374027252,-0.033807601779699326,-0.07570124417543411,-0.004704395309090614,0.028530949726700783,0.061812158674001694,-0.06335902214050293,0.0265433918684721,-0.05652184039354324,-0.09516783058643341,0.06970009952783585,0.034268833696842194,-0.03835265710949898,-0.08995883166790009,0.05380374938249588,-0.08721168339252472,0.059139251708984375,0.05465521663427353,0.04413493350148201,0.06510996073484421,-0.07123426347970963
 -0.05565844476222992,-0.06261646747589111,0.03131734952330589,0.09127742797136307,-0.01555840764194727,-0.06962128728628159,0.023860856890678406,-0.010050457902252674,0.042136065661907196,-0.006076616235077381,0.04031319171190262,-0.013003841042518616,-0.04744537174701691,0.017358409240841866,-0.07634373754262924,-0.005093827378004789,-0.0018186643719673157,-0.008599691092967987,0.04940468817949295,0.0012052917154505849,-0.06378454715013504,-0.027116239070892334,-0.029390258714556694,0.11352067440748215,-0.007159342989325523,-0.0043832529336214066,-0.050469253212213516,0.10718189179897308,0.0447293259203434,-0.007567485794425011,0.05117776617407799,-0.03332828730344772,0.10983162373304367,-0.04146064817905426,-0.039496682584285736,-0.004078954458236694,-0.01453196071088314,-0.07986900210380554,0.017375389114022255,-0.057176459580659866,0.05385866388678551,-0.08733097463846207,0.05422864109277725,-0.06443292647600174,0.053725115954875946,-0.08445549011230469,-0.10442976653575897,-0.051967132836580276,-0.0072140018455684185,-0.06504205614328384,0.06006752327084541,0.018121663480997086,0.030508767813444138,0.06138719990849495,0.032507605850696564,0.11671224981546402,-0.057593509554862976,0.10290272533893585,0.12192695587873459,-0.009911969304084778,-0.03310254588723183,0.05837075784802437,0.07666829973459244,0.05234630033373833,-0.0837758257985115,-0.0838155522942543,-0.004752702545374632,0.04469337686896324,0.04236102104187012,0.05562559515237808,0.08298936486244202,0.11220371723175049,0.01606733724474907,0.06547120213508606,-0.06369379162788391,0.08475150913000107,0.010835051536560059,-0.049150072038173676,0.06414733082056046,0.0011180759174749255,0.031066538766026497,-0.03689953684806824,0.08194268494844437,0.08344478905200958,0.006831788457930088,-0.028581617400050163,-0.0213853158056736,-0.001974755432456732,-0.02724877931177616,0.08198156207799911,-0.056806933134794235,-0.05498084798455238,-0.009442257694900036,0.09134473651647568,0.005900475662201643,0.035781070590019226,-0.022676650434732437,-0.006541131064295769,-0.07925812155008316,-0.06304934620857239,0.09728167951107025,-0.11233551800251007,0.005609400104731321,0.05068143829703331,0.03289607912302017,-0.08455222100019455,0.0042022657580673695,0.009419037960469723,-0.02071470022201538,-0.11338411271572113,-0.012432154268026352,0.03512915223836899,0.010978267528116703,-0.001980873756110668,-0.03885233774781227,-0.014378040097653866,-0.020048009231686592,0.04441138729453087,-0.008899441920220852,0.06617078930139542,0.05382887274026871,0.09655244648456573,0.03956105187535286,0.027419162914156914,-0.023944254964590073,0.02925824373960495,-0.007887275889515877,0.07433079928159714
 -0.06518734246492386,-0.018935786560177803,-0.07303915917873383,0.06919370591640472,-0.003939077723771334,-0.044615644961595535,0.10918673872947693,0.05506381765007973,0.028515225276350975,0.02310129627585411,0.05741075053811073,0.09117399901151657,0.0989232286810875,0.03065614029765129,-0.07870113104581833,-0.05172690004110336,-0.03025711327791214,0.073015496134758,0.029255937784910202,0.08994252979755402,-0.09586479514837265,0.06830985844135284,0.04004037007689476,-0.03308109939098358,0.09066610038280487,-0.032226499170064926,0.010185318998992443,-0.048755042254924774,0.0745384469628334,-0.09067921340465546,-0.02604677341878414,0.06451208889484406,0.007065927609801292,-0.0018278015777468681,-0.07993410527706146,0.07865215092897415,0.06871575117111206,0.0601295568048954,0.044700149446725845,0.019191201776266098,-0.07932410389184952,-0.07014130055904388,-0.04795011132955551,0.03035261668264866,-0.09934952855110168,0.04332979395985603,0.03475475683808327,0.13817383348941803,0.020167464390397072,-0.029204927384853363,-0.12231344729661942,0.06570065766572952,0.012365687638521194,0.02448071911931038,0.08017735928297043,0.06220210716128349,0.002628932474181056,0.0762205421924591,0.06770424544811249,0.11384961754083633,-0.09559721499681473,0.014895342290401459,0.16344308853149414,-0.040320102125406265,-0.093988798558712,-0.030452018603682518,-0.07104628533124924,0.03079909272491932,0.0713793933391571,-0.01143768709152937,0.026393476873636246,0.00880076177418232,-0.039012033492326736,0.0073353624902665615,0.0996270552277565,-0.037414491176605225,0.054080531001091,0.0882171094417572,-0.0054669976234436035,0.02190694585442543,0.11139388382434845,0.029241036623716354,0.05663025379180908,0.11675362288951874,0.014652966521680355,-0.12806151807308197,-0.07096407562494278,-0.07217996567487717,0.04986605793237686,-0.04135696589946747,-0.005179048050194979,-0.04177142307162285,0.04886523634195328,-0.004335436969995499,0.10814182460308075,0.03059443272650242,0.0035668101627379656,-0.11017704755067825,-0.05492696538567543,-0.040724825114011765,0.07638160139322281,-0.04018456116318703,0.01709691993892193,0.017681626603007317,0.01908987946808338,-0.002798377303406596,0.07547397911548615,-0.020279131829738617,-0.011835763230919838,-0.12282243371009827,0.05483396351337433,0.03993938863277435,-0.04164303094148636,0.007503444794565439,0.05684841796755791,-0.11555426567792892,-0.03300391882658005,-0.08554945141077042,0.05465187504887581,0.016835764050483704,-0.04453364759683609,0.012381021864712238,0.1425541341304779,-0.04124339297413826,0.14429740607738495,-0.05070040374994278,0.07697789371013641,-0.03923487663269043
 -0.09810328483581543,-0.05014420673251152,0.035942092537879944,0.08548614382743835,-0.1205558255314827,-0.02725256234407425,-0.031115004792809486,0.08891396969556808,0.06282747536897659,0.04461177811026573,0.057346928864717484,0.06736301630735397,0.08821914345026016,0.16785715520381927,0.045773886144161224,-0.05802863463759422,-0.055945128202438354,0.14010043442249298,-0.10082192718982697,0.005349324084818363,-0.09261176735162735,0.09294099360704422,-0.02035268396139145,0.11288584023714066,0.05316520854830742,-0.11061747372150421,-0.07253343611955643,0.04473310708999634,0.1056595891714096,-0.0069139618426561356,0.023815173655748367,-0.0529169924557209,0.04887249693274498,0.05026949569582939,0.02945677749812603,-0.014898218214511871,0.010808347724378109,0.015067917294800282,0.14150011539459229,0.06425821036100388,0.11600406467914581,0.03447389230132103,-0.06084759533405304,0.048876915127038956,-0.010804537683725357,-0.0951559916138649,-0.11068680137395859,0.05581682547926903,-0.09046805649995804,0.060002170503139496,-0.05037064477801323,0.027927855029702187,-0.07476850599050522,-0.05235625058412552,-0.09056571871042252,0.08134496957063675,0.1132284477353096,0.018343623727560043,0.07171260565519333,-0.026209760457277298,-0.05303487926721573,-0.03800539672374725,0.10485459119081497,0.03223928436636925,-0.098087377846241,-0.03403389826416969,-0.05847914144396782,0.09324406832456589,0.070041224360466,0.04621182009577751,0.1497603803873062,0.051650870591402054,0.03896471485495567,0.029749855399131775,-0.006307405885308981,-0.016928035765886307,-0.048411283642053604,0.06322149187326431,-0.0010973660973832011,-0.07668521255254745,-0.02079693414270878,-0.056128572672605515,0.0774717777967453,0.16011521220207214,-0.025710830464959145,-0.018540021032094955,-0.05928549915552139,-0.08767969906330109,0.048892077058553696,-0.007108411286026239,-0.03409725800156593,0.014831195585429668,0.05938981845974922,0.0659543126821518,-0.008921747095882893,-0.07302255183458328,-0.01593910902738571,0.005565565079450607,-0.05800769478082657,0.12087450921535492,-0.005474958568811417,-0.02612859010696411,-0.12624041736125946,-0.0016156996134668589,-0.058891575783491135,-0.12161801010370255,-0.012602860108017921,0.03889976814389229,-0.09068209677934647,0.030734583735466003,0.026389000937342644,0.007247254252433777,0.09054522961378098,0.12061230093240738,0.0028967312537133694,-0.14333197474479675,0.0710299015045166,0.023136332631111145,-0.0007233028882183135,0.04650084674358368,0.021197069436311722,-0.017772488296031952,0.1252753734588623,0.054721899330616,0.07249455899000168,0.03097633458673954,0.09774268418550491,-0.11460372060537338
 0.03723566234111786,0.06847763806581497,-0.033625468611717224,0.08551759272813797,-0.04220583662390709,-0.050811488181352615,0.030143192037940025,0.13761386275291443,0.14701491594314575,-0.020078647881746292,-0.04045383632183075,0.03097361885011196,-2.534647865104489e-05,-0.03386629745364189,-0.06357094645500183,-0.09408653527498245,-0.004246118478477001,-0.08218958228826523,0.011954523622989655,-0.052468497306108475,0.03029763698577881,-0.06893093138933182,-0.012986283749341965,0.1146840900182724,0.05233793333172798,-0.10844913125038147,0.043443720787763596,-0.05258096754550934,-0.0061868359334766865,-0.07469260692596436,0.06787488609552383,0.04380514472723007,-0.032540228217840195,-0.10358964651823044,0.0842406302690506,-0.07635779678821564,0.006216026842594147,-0.06745699048042297,0.050247468054294586,0.00572145776823163,-0.011595220305025578,-0.06967735290527344,-0.025224197655916214,-0.0439017154276371,0.09388227015733719,-0.031031182035803795,0.03363187983632088,0.09346472471952438,-0.1013360321521759,0.07596951723098755,-0.008854720741510391,0.0014142916770651937,-0.07235512137413025,-0.012821953743696213,-0.0654069185256958,-0.001421281136572361,-0.03619050979614258,0.08576144278049469,0.09865951538085938,0.008490039967000484,-0.07202117890119553,-0.07404259592294693,0.06380951404571533,0.02003464475274086,0.012748965062201023,0.05370379984378815,0.1311994194984436,-0.026394670829176903,0.08596379309892654,0.01881396397948265,-0.03202434256672859,-0.03068765439093113,0.013661644421517849,0.01778092421591282,0.067936971783638,-0.048563648015260696,-0.030056865885853767,0.054577842354774475,0.06184283271431923,-0.08254902064800262,0.024766381829977036,-0.012662192806601524,-0.0327572263777256,0.03085511177778244,0.0710129365324974,-0.09906358271837234,-0.04556340351700783,0.04631597548723221,0.051981121301651,0.08011248707771301,-0.06774745881557465,-0.019080661237239838,-0.003940201830118895,0.0621296688914299,-0.0014604497700929642,-0.06892462074756622,-0.013620473444461823,0.06779205054044724,0.05236925929784775,0.007230301853269339,-0.05138546973466873,-0.030347280204296112,0.00026914518093690276,0.0665086954832077,0.00022903158969711512,0.03289995342493057,-0.10355748981237411,-0.02750389277935028,0.04854454845190048,0.01280324999243021,-0.0489860400557518,-0.08756835013628006,0.03798011317849159,0.020138079300522804,0.03034476935863495,0.0823531225323677,0.05512014776468277,-0.050324734300374985,0.10775443911552429,-0.05298947915434837,0.06413957476615906,0.023021502420306206,-0.002666640095412731,-0.09870687127113342,-0.07072360068559647,-0.06859488040208817,0.07790014147758484,-0.00877669733017683
 -0.02907017059624195,-0.01036226749420166,-0.019841497763991356,0.04705876111984253,0.022422023117542267,-0.02776128239929676,0.05662677064538002,-0.022940360009670258,0.03706704080104828,-0.018443530425429344,0.06003289297223091,0.007373044732958078,0.08621220290660858,0.09478405863046646,-0.03320158272981644,-0.10753950476646423,-0.007235357072204351,-0.0001499364443589002,-0.062173403799533844,0.08978358656167984,0.08734825998544693,-0.06281691789627075,0.09001640230417252,0.11355488002300262,-0.013062682934105396,-0.025048252195119858,-0.014781760983169079,-0.02200307697057724,-0.02098424918949604,-0.0030528276693075895,0.05246078968048096,0.023749208077788353,0.08840811997652054,0.08026356250047684,0.06701695919036865,-0.05733690783381462,0.04145641252398491,-0.014349829405546188,0.04507259279489517,-0.05535589158535004,0.09062381088733673,-0.053134698420763016,-0.021921269595623016,-0.026936670765280724,0.0409293994307518,-0.07884490489959717,-0.0902375653386116,0.03607996925711632,0.09333717823028564,0.018176358193159103,0.07538225501775742,0.11215683072805405,0.07225686311721802,-0.03194935619831085,0.11784962564706802,-0.053065139800310135,-0.005610613152384758,-0.016823256388306618,0.03301282227039337,0.07852175086736679,-0.0451737716794014,-0.03311344236135483,-0.02446054294705391,0.013071508146822453,-0.0823700875043869,-0.12594346702098846,4.0479120798408985e-05,-0.03483643755316734,-0.050910718739032745,-0.0045150164514780045,0.012461415491998196,0.09098055958747864,0.012666502967476845,0.09370747208595276,0.08841963857412338,0.10317458212375641,-0.017445269972085953,0.10620669275522232,-0.031614165753126144,-0.03571375086903572,-0.02346727065742016,0.010717703960835934,-0.021330272778868675,-0.017631471157073975,0.03487776964902878,-0.04709973931312561,0.007428602781146765,-0.03349166363477707,0.03138267993927002,0.029915234073996544,-0.018007731065154076,0.03512021526694298,-0.051447995007038116,-0.00802117120474577,0.03447665274143219,0.025201577693223953,0.06230686232447624,-0.014757209457457066,-0.04575272649526596,-0.07320507615804672,-0.013854957185685635,-0.10290423780679703,-0.016214977949857712,0.049711018800735474,0.10213682800531387,-0.022964345291256905,0.04599050059914589,0.06504113227128983,0.02264612354338169,-0.023102745413780212,-0.08212099224328995,0.003959058318287134,-0.02489791065454483,0.04164379835128784,0.04684199392795563,0.05241187661886215,0.06855978816747665,-0.043456148356199265,-0.0428445041179657,0.026690123602747917,-0.012301384471356869,-0.07931143045425415,0.05233870819211006,0.06588888168334961,0.024813028052449226,0.03857070580124855,-0.004963761195540428,0.04847658798098564
 -0.07596751302480698,0.009015061892569065,-0.04488501697778702,0.11159524321556091,-0.1555226743221283,-0.11889617145061493,-0.012140625156462193,-0.0018186015076935291,0.013288702815771103,-0.030959615483880043,-0.05257755517959595,-0.04363453388214111,-0.030502788722515106,-0.07180009037256241,-0.08686639368534088,-0.04837113246321678,-0.05689360946416855,0.14400842785835266,-0.06805021315813065,0.08628375828266144,-0.07311702519655228,0.07571229338645935,-0.02255852334201336,0.02409505657851696,-0.06979289650917053,-0.12186043709516525,0.02493651583790779,0.03844454884529114,0.013677887618541718,-0.0671626403927803,0.006723031867295504,-0.09987106919288635,-0.01940487138926983,0.07546272873878479,-0.04056009650230408,-0.050734903663396835,-0.006068116519600153,0.04004349559545517,0.09258954226970673,-0.008098015561699867,-0.0929674282670021,0.05958595126867294,-0.065378338098526,-0.005090485792607069,0.1168685257434845,0.011336608789861202,-0.01736639067530632,0.07422748953104019,-0.05225209891796112,0.04735107347369194,-0.10028651356697083,-0.007525227498263121,0.10274365544319153,0.04526239633560181,0.0394439660012722,0.059012044221162796,0.09250641614198685,0.11046867817640305,-0.009582284837961197,0.08179731667041779,0.03191162645816803,-0.048846375197172165,0.10161203145980835,-0.010907200165092945,-0.0387820340692997,0.01739722304046154,0.07730892300605774,0.08537981659173965,0.08100701123476028,-0.07545244693756104,0.09000933915376663,-0.05128426104784012,-0.05294246971607208,-0.002356521086767316,0.1129516214132309,-0.005234082229435444,0.07926182448863983,0.07119819521903992,-0.018811989575624466,0.008465725928544998,-0.010003233328461647,0.06574473530054092,-0.031132135540246964,-0.03766710311174393,-0.010567055083811283,-0.06395822018384933,-0.08817432820796967,-0.003350533079355955,-0.08076660335063934,-0.05073164775967598,-0.02726445347070694,0.014713560231029987,-0.030733751133084297,0.09939362108707428,-0.0511343851685524,0.005462233908474445,-0.031108202412724495,-0.17113612592220306,-0.0911288633942604,0.028316274285316467,0.029099442064762115,0.02876170538365841,-0.04186803475022316,-0.06771866232156754,0.02187243290245533,0.08790919184684753,0.11909429728984833,0.07486441731452942,0.0654379278421402,-0.0465986505150795,0.08835144340991974,0.048397742211818695,0.1159401684999466,0.07634007930755615,-0.04357049614191055,-0.13465507328510284,-0.05890188366174698,-0.08765751868486404,-0.018514880910515785,0.06704740226268768,0.023062489926815033,-0.031772952526807785,-0.0036238657776266336,0.05337543785572052,0.10038016736507416,-0.02493136189877987,0.04117107763886452,-0.10766834765672684
 -0.08837997168302536,-0.03726082667708397,0.002861793851479888,-0.01517570298165083,-0.13595426082611084,-0.04155822470784187,-0.05776835232973099,-0.02158430777490139,0.04533088207244873,0.06482668220996857,-0.07214117050170898,0.043471500277519226,-0.026409747079014778,0.026404058560729027,-0.09515101462602615,-0.015454462729394436,-0.07897254824638367,-0.021426597610116005,0.03774222359061241,-0.09012025594711304,-0.05361076444387436,0.06613459438085556,0.05073793604969978,0.11462318897247314,0.034658558666706085,-0.17329776287078857,-0.07061576098203659,0.03278633952140808,0.07918649166822433,-0.06710536777973175,-0.0361020565032959,-0.08353429287672043,0.10262520611286163,0.07802120596170425,-0.06624579429626465,-0.005587474443018436,-0.008994813077151775,-0.11760085076093674,0.022815357893705368,0.031929753720760345,0.001292646978981793,0.016223067417740822,0.04282524064183235,0.05633667856454849,-0.03360724821686745,-0.1567070484161377,-0.018622882664203644,0.032323699444532394,-0.05218151584267616,-0.07353484630584717,-0.005995374638587236,0.10033430904150009,0.08091047406196594,0.02077312394976616,-0.051097773015499115,0.06385773420333862,0.062474384903907776,0.08769243955612183,-0.05886349454522133,-0.09132183343172073,-0.040872346609830856,-0.05133385211229324,0.001119691994972527,-0.024237822741270065,0.01664200983941555,-0.04259929805994034,-0.009717694483697414,0.06085387244820595,-0.05963803082704544,0.06472835689783096,0.0025697892997413874,-0.07083608955144882,-0.07290884852409363,-0.045878395438194275,0.07193201035261154,-0.012301717884838581,0.07221375405788422,0.04843001067638397,0.052371278405189514,0.08322332054376602,0.05267355963587761,0.08217882364988327,0.10548181086778641,-0.01501140184700489,-0.10180411487817764,-0.044743843376636505,-0.0027126013301312923,-0.09021192044019699,-0.09821746498346329,0.020357808098196983,-0.13956734538078308,0.014713771641254425,-0.025478525087237358,0.04014517366886139,-0.015132062137126923,-0.0497455932199955,0.03493424132466316,-0.11714045703411102,-0.07435766607522964,0.08583104610443115,0.013517183251678944,-0.04912717640399933,-0.054637931287288666,-0.06446883827447891,-0.05773891881108284,0.050090447068214417,0.01167780440300703,0.016366751864552498,-0.04437071084976196,-0.09115684777498245,0.06593794375658035,-0.07966841757297516,0.08883874118328094,0.012154238298535347,-0.07225342094898224,-0.10301999002695084,-0.10902079939842224,-0.05160926282405853,0.07824549823999405,-0.05981225520372391,0.004652451258152723,-0.03650189936161041,0.0401889905333519,-0.06754659116268158,-0.022503355517983437,0.05300915241241455,0.03488621860742569,-0.06323011219501495
 -0.003516592551022768,0.05563495308160782,-0.07055190950632095,-0.01729920692741871,-0.09699051827192307,0.07526817172765732,0.0047378502786159515,0.11244406551122665,0.019709987565875053,-0.02774617448449135,0.03631296753883362,0.05822203308343887,0.02038675919175148,-0.03180098533630371,0.08577918261289597,-0.08633596450090408,0.029399042949080467,0.11752055585384369,-0.09454892575740814,0.003639715490862727,-0.07164645195007324,-0.04066726565361023,-0.10099100321531296,-0.03464360162615776,0.006669239606708288,-0.12292482703924179,-0.05924976244568825,-0.008131382055580616,0.15071789920330048,0.010570211336016655,0.06526742875576019,0.012766850180923939,0.015045170672237873,-0.05428696051239967,-0.037372343242168427,-0.008245373144745827,0.05180998146533966,-0.08536005020141602,0.05088343471288681,0.07335832715034485,0.11134886741638184,-0.03725940361618996,0.08135953545570374,-0.010858515277504921,0.02463969588279724,0.002409170614555478,-0.04717676714062691,0.12058594822883606,-0.15085574984550476,-0.06817296892404556,-0.03351736441254616,0.031138915568590164,0.008233251050114632,-0.062289196997880936,-0.04515642300248146,0.12713317573070526,0.07617919892072678,0.0785534605383873,0.07407394051551819,0.08633410185575485,-0.1323193907737732,-0.00026475463528186083,0.04390546306967735,0.09406900405883789,-0.06634010374546051,0.06947192549705505,0.08755362778902054,-0.022709593176841736,-0.060965679585933685,0.0003655112814158201,0.11306135356426239,0.03777618333697319,-0.04196658357977867,0.0704379454255104,0.09189039468765259,0.0006906348280608654,-0.03739470988512039,-0.04132220149040222,0.19497381150722504,-0.04778381809592247,0.05488206073641777,0.056654974818229675,-0.0019653073977679014,0.08202661573886871,0.010102476924657822,-0.10460040718317032,0.05516490340232849,0.006628150586038828,0.046460576355457306,-0.01687043346464634,-0.09138239175081253,-0.02299226075410843,0.04785187914967537,-0.02691180445253849,0.0484406016767025,0.006542612332850695,0.08736808598041534,-0.059701379388570786,-0.04764866083860397,0.08171091973781586,-0.0444985032081604,-0.08061064034700394,-0.1576676070690155,-0.012674965895712376,0.04594826325774193,-0.007924806326627731,0.0030409852042794228,0.029361799359321594,-0.03916740417480469,-0.13723517954349518,0.04911469668149948,-0.06484230607748032,0.025299912318587303,-0.046584419906139374,-0.03189083933830261,-0.051506899297237396,-0.06718800216913223,-0.06134258583188057,0.056667961180210114,-0.03713312745094299,-0.13740962743759155,0.06331619620323181,-0.041333556175231934,0.040882594883441925,-0.011830874718725681,-0.006020121742039919,-0.0029152026399970055,-0.08481445163488388
 -0.17856533825397491,0.10657607018947601,-0.09933236241340637,0.06735273450613022,-0.15044495463371277,-0.020104873925447464,0.0707087516784668,-0.003256467869505286,-0.08372483402490616,-0.09509646892547607,0.11441900581121445,0.022653300315141678,-0.020092783495783806,-0.062234826385974884,-0.029968228191137314,-0.16152258217334747,-0.05303109437227249,0.11978613585233688,0.050723597407341,0.024101577699184418,-0.011093479581177235,0.026314731687307358,-0.04182537645101547,0.04739020764827728,0.07281076163053513,-0.1112571433186531,-0.037101659923791885,-0.053221363574266434,-0.04837113618850708,-0.0752570703625679,-0.028690457344055176,0.010615726001560688,-0.0011811283184215426,-0.05589484050869942,-0.025896193459630013,0.0508449487388134,-0.010908055119216442,0.038442738354206085,0.09352124482393265,-0.09286443889141083,0.023412898182868958,0.02513463795185089,-0.08336739242076874,-0.03915159031748772,-0.08082256466150284,-0.06596388667821884,0.057233814150094986,0.04145410284399986,0.06199602782726288,-0.06594672054052353,-0.061355385929346085,0.04746336117386818,-0.06433848291635513,0.07514049112796783,0.06684830039739609,0.07093938440084457,-0.05405918508768082,0.05543534830212593,0.11149809509515762,-0.02085673063993454,0.027104029431939125,0.05041765421628952,0.07086911797523499,0.07499825209379196,0.05990336090326309,-0.06424373388290405,-0.05791394039988518,-0.016159912571310997,-0.07011701911687851,0.039671655744314194,-0.014245735481381416,0.07018060982227325,-0.05662011727690697,0.01762317679822445,0.003338394220918417,-0.08906504511833191,0.11263842135667801,0.08181644231081009,-0.009629166685044765,-0.0663711354136467,0.03371185064315796,-0.029018459841609,0.04140184819698334,-0.037645790725946426,0.036513131111860275,0.028335606679320335,-0.03890618681907654,-0.07381027191877365,0.029760299250483513,-0.05018700286746025,-0.07553151994943619,-0.06997479498386383,0.05258801206946373,0.06165146082639694,0.1623663604259491,0.04147165268659592,-0.024897761642932892,-0.060394708067178726,-0.024148179218173027,0.056506041437387466,0.05274398624897003,-0.012898774817585945,-0.09297223389148712,-0.0738753154873848,-0.04110836237668991,-0.028713515028357506,0.049316275864839554,0.005751555785536766,-0.04749467596411705,-0.15887656807899475,0.004261129070073366,-0.02294166386127472,-0.0240109171718359,0.04616181552410126,0.14228184521198273,-0.12685522437095642,-0.022466737776994705,0.03853410482406616,-0.03614281490445137,0.00406750338152051,-0.1148098036646843,0.01915404573082924,0.07815714925527573,0.04631133750081062,0.1189282238483429,0.03402305021882057,-0.05673810839653015,-0.0025035173166543245
 -0.08388908207416534,0.027894046157598495,0.05259990319609642,-0.037603750824928284,-0.06980029493570328,0.04600679129362106,0.0203875619918108,0.07311166822910309,0.07912857085466385,0.05098525807261467,0.08386021107435226,-0.019248703494668007,0.029262570664286613,0.003618513699620962,0.05885537713766098,0.07010327279567719,0.03625859320163727,0.06271713227033615,-0.08449035882949829,0.028315763920545578,-0.07693256437778473,0.062015946954488754,0.030550526455044746,0.04698725417256355,-0.08122511208057404,-0.12593144178390503,-0.05001959577202797,-0.08918094635009766,0.001025127712637186,-0.09247805178165436,0.13895432651042938,-0.042225856333971024,-0.04026949405670166,-0.07454615831375122,0.07409603148698807,-0.011298369616270065,0.10540954023599625,-0.0002497418026905507,0.05449676513671875,0.027171550318598747,-0.08637523651123047,0.004730427172034979,-0.021793106570839882,-0.07371565699577332,0.03039093129336834,-0.08002269268035889,-0.07585839927196503,0.007094843313097954,-0.013903123326599598,-0.02322552166879177,0.07964883744716644,0.006313195917755365,0.09781087934970856,0.10685642063617706,-0.07401955127716064,0.04996402934193611,0.03228216990828514,0.12114454805850983,0.037568941712379456,0.05550025776028633,-0.07218930125236511,-0.02094257064163685,0.09679032117128372,0.05217547342181206,0.0062122647650539875,-0.04470434784889221,-0.03587961196899414,0.09261937439441681,0.03027869015932083,-0.009184153750538826,-0.037353236228227615,-0.001397224492393434,0.036549586802721024,-0.04179985448718071,0.001925489748828113,0.02828935720026493,0.00952722504734993,0.11855370551347733,0.016806049272418022,-0.02480172924697399,-0.05090104043483734,0.006696665659546852,0.02302342839539051,0.04559659957885742,-0.021264905110001564,-0.06138607859611511,-0.028996780514717102,-0.08012387901544571,-0.0751752257347107,0.11204226315021515,0.01997249387204647,0.08968079835176468,-0.02542232535779476,0.027149388566613197,0.07768261432647705,0.015176243148744106,0.10933905839920044,-0.0955270454287529,-0.08977924287319183,0.08356662094593048,0.053234416991472244,0.0024484547320753336,-0.11522810161113739,-0.04541661962866783,-0.026897132396697998,0.05503091961145401,-0.002037971280515194,-0.05907727777957916,-0.10078747570514679,0.0015070640947669744,0.13708974421024323,0.06354565918445587,0.10347384214401245,0.04564062878489494,-0.06016607955098152,0.0008808286511339247,0.018330756574869156,-0.0444943793118,-0.005289825145155191,0.009950583800673485,-0.009278260171413422,-0.02940269000828266,-0.0486900769174099,0.0257025808095932,0.04280080273747444,0.051204465329647064,0.007591404020786285,-0.09713711589574814
 0.01833009533584118,-0.07707197219133377,-0.06493834406137466,0.027545098215341568,-0.12764154374599457,0.01031092181801796,-0.1233464702963829,0.04579652473330498,0.13487456738948822,-0.02265571616590023,-0.00238500302657485,-0.08360549062490463,0.03110376000404358,0.030546948313713074,-0.09141125530004501,0.03999076783657074,-0.09013008326292038,-0.022455910220742226,-0.012825829908251762,-0.1364172101020813,-0.08088687062263489,0.04216447100043297,-0.08670895546674728,-0.05831553041934967,0.05748358741402626,-0.1508456915616989,-0.02846061810851097,-0.08299647271633148,0.06969324499368668,-0.07898040860891342,-0.0037151570431888103,0.0432247668504715,0.08124315738677979,0.10670934617519379,-0.04251863434910774,-0.05508482828736305,0.010220060124993324,-0.14308619499206543,0.09058462083339691,0.12390344589948654,-0.08648212254047394,-0.08429969847202301,-0.02046644687652588,0.048255957663059235,-0.0032685240730643272,-0.037684839218854904,-0.031610794365406036,0.03613821044564247,-0.07312476634979248,-0.012211189605295658,0.07495974749326706,0.00889490731060505,0.0021978665608912706,-0.027628187090158463,-0.07270783931016922,-0.016040397807955742,0.11507251858711243,0.11770498752593994,-0.08504173904657364,0.031717315316200256,-0.02822154201567173,0.011855530552566051,0.12726891040802002,-0.029272902756929398,-0.008110756985843182,-0.005214163567870855,-0.04921061545610428,0.019467860460281372,0.03633381426334381,0.054834216833114624,0.012225990183651447,-0.03759048506617546,-0.06951320916414261,0.029184434562921524,-0.04840010404586792,0.010969252325594425,0.027329519391059875,0.1321479082107544,0.08019265532493591,0.010369498282670975,0.0273903738707304,0.007914131507277489,0.04052836447954178,0.08277317881584167,0.05824900045990944,-0.040541887283325195,-0.12433753162622452,-0.14830146729946136,-0.10890243202447891,0.022379016503691673,-0.11410612612962723,0.019170595332980156,0.12428925186395645,-0.025256162509322166,-0.11318004131317139,0.07442594319581985,0.10036925226449966,-0.1677815020084381,-0.025925971567630768,0.09886673092842102,-0.004513392690569162,0.050031207501888275,-0.06118924915790558,-0.06844280660152435,0.027439916506409645,-0.08307091146707535,0.020968282595276833,0.045668669044971466,-0.05032140761613846,-0.07270181179046631,0.07530058175325394,-0.04330877214670181,0.11044174432754517,0.03976307809352875,-0.06336549669504166,-0.021870048716664314,-0.04255117103457451,0.022710375487804413,0.1132974699139595,-0.0730772465467453,0.035832729190588,-0.003254800336435437,0.14047802984714508,-0.07447884231805801,0.00016689255426172167,0.0969185084104538,-0.005438476800918579,0.0072977421805262566
 -0.11297591030597687,0.03912804275751114,0.03234407305717468,0.06919825822114944,-0.1370389461517334,0.028631627559661865,-0.008837969042360783,0.08845902979373932,0.07452099025249481,0.08102580159902573,-0.03423009067773819,0.09124012291431427,-0.05978923290967941,-0.05311572924256325,0.08349242806434631,0.027044443413615227,0.08742178231477737,0.09235258400440216,-0.09351810067892075,0.0034744180738925934,0.09273191541433334,0.08522259443998337,-0.04240277037024498,-0.03168466314673424,0.07058539986610413,-0.05839422717690468,0.00085758714703843,0.009635922499001026,0.06515219807624817,-0.08997861295938492,0.03768576309084892,-0.03912701830267906,-0.02497243881225586,-0.05075284466147423,0.08136411756277084,0.0715131014585495,-0.027838874608278275,-0.09186971932649612,0.02825389802455902,0.03467429429292679,-0.0136247044429183,0.013442087918519974,-0.00673272367566824,-0.01589854247868061,0.07761349529027939,-0.08792177587747574,-0.05910038575530052,0.10577566176652908,-0.09572780132293701,0.010355132631957531,-0.0931173786520958,0.0396549291908741,-0.015498409979045391,0.09075043350458145,-0.11565530300140381,-0.02396860532462597,-0.008420320227742195,-0.022868912667036057,0.05188237130641937,0.10095857083797455,0.04111511632800102,0.024707501754164696,0.10205112397670746,-0.042480580508708954,0.05440257862210274,-0.05438230559229851,0.09829879552125931,-0.018515605479478836,-0.06621602177619934,-0.010357831604778767,0.06757787615060806,-0.026859654113650322,0.09777481108903885,0.011204627342522144,0.07609786093235016,0.14491471648216248,-0.010694587603211403,0.0724426805973053,0.17445018887519836,-0.0019220495596528053,-0.02796826884150505,-0.01644047535955906,-0.062264375388622284,-0.08065823465585709,0.13695749640464783,-0.1377793252468109,0.0593750886619091,-0.05800110846757889,0.001959193730726838,0.007886980660259724,-0.056577734649181366,0.016854222863912582,0.03820011764764786,-0.06345786899328232,-0.10052552819252014,0.07811996340751648,0.01967615634202957,-0.15156245231628418,-0.09129666537046432,0.10274885594844818,-0.05725321173667908,-0.030680201947689056,-0.0018888554768636823,0.09311126917600632,-0.07814562320709229,0.09581522643566132,-0.04026808589696884,0.03768942132592201,-0.02676979824900627,0.044910360127687454,0.07111239433288574,0.09414827823638916,-0.06302880495786667,-0.07423029839992523,0.0646723136305809,0.0767970159649849,-0.08363652974367142,-0.06438395380973816,0.0765838548541069,-0.026965653523802757,0.01694934256374836,0.11848164349794388,-0.025234701111912727,0.01632506772875786,-0.03890205919742584,0.029804140329360962,-0.06459210813045502,0.009074457921087742
 -0.0974448174238205,0.10262802243232727,0.034078359603881836,-0.006543480325490236,-0.01870862953364849,-0.10126563161611557,-0.012622860260307789,-0.007805724628269672,-0.10281549394130707,0.01574983447790146,0.0884089544415474,0.07856035232543945,-0.04031505063176155,-0.03362203761935234,0.040351126343011856,-0.11285942792892456,-0.06909023970365524,-0.024549875408411026,-0.035511042922735214,0.01446868758648634,-0.03353007510304451,0.008512679487466812,-0.07153712958097458,-0.045339714735746384,0.09662728756666183,-0.1554606407880783,0.03213698789477348,0.025988204404711723,0.04944101348519325,0.05086776986718178,-0.0679546445608139,0.019766129553318024,0.035125091671943665,-0.07674020528793335,-0.08312443643808365,0.026808228343725204,-0.04396309703588486,-0.09169204533100128,0.05613680183887482,0.09930408000946045,-0.05358138307929039,-0.04389512911438942,-0.05599848926067352,-0.0293833427131176,0.056700270622968674,-0.01690211333334446,-0.009576910175383091,0.03458578512072563,0.09628321975469589,0.006355279590934515,0.048431795090436935,0.039298851042985916,0.06395970284938812,-0.05956758186221123,0.056499190628528595,0.031974513083696365,-0.05946895107626915,0.1369374841451645,0.12154286354780197,0.044927194714546204,-0.0005121760186739266,0.07950172573328018,0.08848503977060318,-0.02978591062128544,-0.014063689857721329,0.017365023493766785,-0.08392996340990067,0.0038148537278175354,-0.07624348253011703,0.02584257908165455,0.03746415302157402,0.08726698160171509,0.02306005172431469,0.07760344445705414,-0.013498282991349697,-0.0003857992996927351,0.014304784126579762,0.1206832230091095,0.045625220984220505,0.0401899628341198,0.0838373675942421,-0.008424107916653156,-0.08888208121061325,-0.0873744860291481,0.043846819549798965,-0.017852095887064934,0.04129772633314133,0.029358703643083572,-0.061879415065050125,0.012963893823325634,-0.11063844710588455,-0.0015898615820333362,0.13402915000915527,-0.051471687853336334,0.1507258266210556,0.012658577412366867,0.002077046548947692,-0.08960676193237305,-0.02048249915242195,0.016412869095802307,0.015809768810868263,-0.007723855786025524,-0.04033678397536278,-0.06682498008012772,-0.055363696068525314,0.11890711635351181,-0.03132987022399902,-0.029575347900390625,-0.04328165948390961,-0.13864481449127197,0.09849820286035538,0.02172062173485756,0.01333559863269329,0.013878079131245613,0.11345938593149185,-0.10137315094470978,-0.04645782709121704,0.01157048437744379,-0.07316883653402328,0.03833746910095215,0.03796696662902832,-0.13212616741657257,-0.03048665262758732,-0.024570269510149956,0.04294472932815552,0.009676041081547737,-0.014963705092668533,0.04314229637384415
 -0.0531265027821064,0.03892870992422104,0.01310661155730486,-0.012202948331832886,-0.07637462764978409,-0.06128878891468048,-0.1379508525133133,-0.004649551119655371,0.035784896463155746,-0.0005561622674576938,-0.03814367204904556,0.0665450170636177,0.06980014592409134,0.04965423047542572,0.0297116506844759,0.034759312868118286,0.02601434476673603,0.026767276227474213,-0.0372486338019371,-0.02177415043115616,-0.07020966708660126,0.0794249027967453,-0.015448727644979954,-0.0010373237309977412,-0.08441735804080963,-0.029003458097577095,-0.0029414729215204716,-0.11503413319587708,0.11262321472167969,0.0023394962772727013,0.05805552005767822,0.006620902568101883,0.028239579871296883,-0.02281171828508377,-0.0512155219912529,0.11373528838157654,0.059711575508117676,-0.08229435235261917,-0.056588124483823776,0.09785181283950806,-0.03352399915456772,-0.03128952905535698,0.04742135480046272,0.05458219349384308,0.07976996898651123,-0.017440054565668106,0.081880584359169,0.05353745073080063,0.07942193746566772,0.007256293669342995,0.07050551474094391,0.05533610284328461,0.11307647824287415,-0.04523124173283577,-0.01941843517124653,0.0024902960285544395,0.13716819882392883,0.07073600590229034,-0.025094805285334587,0.0041104634292423725,-0.07734754681587219,0.10653507709503174,0.019680388271808624,0.02025493048131466,0.07807999849319458,0.06391634792089462,0.05712229013442993,0.05164068937301636,-0.010052012279629707,-0.03186812624335289,0.027699211612343788,0.06912851333618164,-0.05902860686182976,-0.0484914556145668,-0.03946809470653534,0.01624402217566967,-0.06645896285772324,0.04768051952123642,0.06387867778539658,0.04450233280658722,0.014931353740394115,0.05640194192528725,0.004452758934348822,-0.03794074431061745,0.01200127974152565,0.007330961059778929,0.00860702246427536,0.04076568782329559,0.06302069127559662,-0.0003779636463150382,-0.004704060964286327,0.027828747406601906,0.016902389004826546,-0.04491552710533142,-0.013757910579442978,-0.014291574247181416,0.08508588373661041,-0.03302067145705223,0.06809582561254501,0.050037890672683716,-0.017185499891638756,-0.026713082566857338,-0.06746358424425125,9.199207124765962e-05,-0.04044439643621445,-0.009844181127846241,0.033971987664699554,0.037817519158124924,-0.08289656788110733,0.019212806597352028,0.12219531834125519,0.1148410215973854,-0.009812242351472378,-0.07210880517959595,0.08423050493001938,0.05234948545694351,-0.03330400586128235,0.0829082578420639,0.03669799491763115,0.008718403987586498,0.08108741790056229,-0.09366900473833084,-0.020253051072359085,-0.016775181517004967,-0.08550773561000824,0.06682614237070084,-0.015455685555934906,-0.1164247915148735
 -0.06815014779567719,-0.05001792311668396,-0.07797659933567047,0.10063692927360535,-0.06258490681648254,0.0547163225710392,-0.10840333253145218,-0.07216311991214752,0.1337149441242218,-0.043691277503967285,0.1025007888674736,0.04464518278837204,-0.032443568110466,0.07709860056638718,0.02635806053876877,0.019483506679534912,-0.021245475858449936,0.04388673976063728,0.025992928072810173,-0.12080550193786621,-0.10071157664060593,0.09393870085477829,-0.009590580128133297,0.006822152528911829,0.07273007184267044,-0.08511575311422348,0.08701904863119125,-0.0335753932595253,-0.028346670791506767,0.053336966782808304,0.1403370350599289,-0.0406821146607399,0.007987374439835548,0.06769327074289322,0.09037686139345169,-0.00883394479751587,0.0008982133003883064,-0.006901768501847982,0.05893491953611374,0.2134416550397873,0.023067796602845192,0.034575045108795166,0.019443025812506676,0.07044541090726852,0.01255060639232397,0.03352005407214165,0.004491948988288641,0.12392009049654007,-0.10172707587480545,-0.08955396711826324,-0.07399114966392517,-0.002780516864731908,-0.06742729991674423,0.03498438745737076,0.020698748528957367,0.09620924293994904,0.01097079087048769,0.09136732667684555,-0.06071119010448456,0.08522550761699677,0.03822017461061478,0.07745125144720078,0.0700593888759613,-0.0007128058932721615,-0.01562683843076229,-0.07234213501214981,0.029582904651761055,0.09456319361925125,0.050387270748615265,-0.05321528762578964,-0.06028616428375244,-0.019636057317256927,-0.054659102112054825,0.03916962072253227,0.06816258281469345,0.007598381955176592,-0.07340735197067261,0.11375028640031815,0.0015388407045975327,0.05926259607076645,-0.017324985936284065,0.06341215968132019,0.1291128396987915,0.007895274087786674,0.013833803124725819,-0.06055976822972298,-0.02567788027226925,-0.027901215478777885,0.0017771421698853374,-0.011843819171190262,-0.15354326367378235,0.08828948438167572,0.07916118949651718,-0.05702821910381317,-0.04199878126382828,0.0005542190046980977,-0.07582740485668182,-0.09223756939172745,-0.01516362652182579,0.07952103763818741,-0.015311622060835361,0.03150108829140663,-0.12557363510131836,0.04290326312184334,-0.021792229264974594,0.046152178198099136,0.09120354801416397,0.012641040608286858,-0.0007925046375021338,-0.055522967129945755,0.13519853353500366,-0.000300915795378387,0.07066689431667328,-0.04259231314063072,0.03228740021586418,0.027006149291992188,-0.08405471593141556,-0.1039629653096199,0.08929228037595749,0.06838946789503098,-0.06148522347211838,0.009625311009585857,0.013530298136174679,-0.003926688339561224,0.05885954201221466,0.01345854252576828,-0.02525523118674755,0.006184575147926807
 -0.08095491677522659,0.064012810587883,-0.034313444048166275,-0.05696101114153862,-0.014223592355847359,-0.0015460525173693895,-0.05665711313486099,-0.012402331456542015,0.047487013041973114,0.031892601400613785,-0.0024223763030022383,0.11606714129447937,-0.012363865971565247,0.0041664098389446735,-0.0007014620350673795,0.048857320100069046,0.0006267233402468264,0.002241738373413682,0.06352108716964722,0.02777177467942238,0.07655701786279678,-0.04612481966614723,0.05409467965364456,-0.02093546837568283,-0.05427823215723038,-0.06998740881681442,-0.0261102132499218,-0.027796920388936996,0.09954129159450531,-0.06159352883696556,0.13625389337539673,-0.10140550881624222,-0.015784868970513344,-0.06701979041099548,0.03597218543291092,0.13179795444011688,0.147251695394516,-0.10787533223628998,-0.0005272846901789308,0.15356339514255524,-0.11060589551925659,0.01219395361840725,0.0849061980843544,0.04891045764088631,0.04258662089705467,0.044668249785900116,-0.065334253013134,0.13064707815647125,-0.026486797258257866,0.001401092391461134,-0.10737789422273636,0.05788814276456833,-0.0050512864254415035,-0.06457895040512085,-0.06947814673185349,0.020764697343111038,0.13088174164295197,0.07792070508003235,-0.04623209312558174,-0.006476195994764566,0.03139549121260643,0.15012319386005402,0.010509741492569447,-0.05453985184431076,-0.05076920986175537,-0.04101915284991264,0.08530587702989578,0.1315857321023941,-0.05188006907701492,-0.04631601646542549,0.01716112531721592,-0.033932123333215714,0.07928898930549622,-0.003266985761001706,0.005399484187364578,0.12484376132488251,0.07685847580432892,0.08983004093170166,0.003101258771494031,0.09536585211753845,0.03435491397976875,-0.06342335045337677,0.06432666629552841,-0.07720784842967987,0.018603969365358353,-0.003681573085486889,-0.004342320840805769,-0.010008390061557293,-0.025446519255638123,0.08321530371904373,-0.03641396015882492,-0.010526364669203758,0.16408281028270721,-0.0413457527756691,-0.08762284368276596,0.009143540635704994,-0.05180244892835617,-0.07504573464393616,-0.023218929767608643,0.0827091634273529,-0.03654538094997406,0.0726940855383873,-0.03674027696251869,-0.02634362131357193,-0.13429348170757294,0.07296792417764664,-0.08539383113384247,0.019387781620025635,-0.017421845346689224,0.01822068728506565,0.020661327987909317,0.02614261768758297,-0.010967053472995758,-0.05013272166252136,-0.05114252120256424,0.007450419012457132,-0.12549181282520294,0.06281203031539917,0.014339402318000793,-0.047384608536958694,-0.09071207046508789,0.05541804060339928,0.021865302696824074,0.037227656692266464,-0.10735221207141876,-0.08640029281377792,0.034442100673913956,-0.07492561638355255
 -0.02862941101193428,0.010164245963096619,-0.08633138239383698,-0.04075280576944351,-0.06360640376806259,0.04741527512669563,-0.03168772906064987,0.049632374197244644,-0.057773005217313766,0.044187210500240326,0.07916272431612015,-0.010052950121462345,0.019354792311787605,0.027164041996002197,-0.049463361501693726,-0.06320807337760925,0.014001489616930485,0.030095048248767853,-0.06918321549892426,-0.07784397900104523,-0.0678979754447937,0.04341565817594528,-0.03609107434749603,-0.06309164315462112,0.029920946806669235,-0.04535960406064987,-0.06326507776975632,0.08161194622516632,-0.010677377693355083,-0.038626816123723984,0.021190296858549118,-0.11494540423154831,0.05674297735095024,-0.00369040435180068,-0.06164565682411194,0.07567885518074036,-0.0665680393576622,-0.08021249622106552,-0.06279914826154709,0.06022512912750244,-0.07913420349359512,0.05986399203538895,-0.09431798756122589,0.023408634588122368,0.02551105059683323,0.020331664010882378,-0.011502801440656185,-0.028249336406588554,0.058388035744428635,-0.09257547557353973,-0.07029687613248825,-0.014899573288857937,0.06309977173805237,-0.059305496513843536,-9.822170250117779e-05,0.05816657096147537,0.07527214288711548,-0.014217163436114788,-0.026319487020373344,-0.018063412979245186,-0.10019338130950928,-0.02532275952398777,0.05282282084226608,-0.0389535017311573,0.03486184775829315,0.0752040445804596,-0.09924247115850449,0.1455134153366089,-0.04755335673689842,-0.08157777786254883,-0.004481809679418802,-0.066893570125103,-0.02668045647442341,-0.01201331801712513,-0.05515469238162041,-0.04312713444232941,0.0068350499495863914,0.07375875115394592,0.1093713715672493,-0.11734993010759354,-0.029190830886363983,0.01627274788916111,0.022059241309762,-0.04871023818850517,0.10718250274658203,-0.0013426507357507944,-0.05074013024568558,-0.08585823327302933,-0.03780585527420044,0.11381244659423828,0.007415352389216423,0.025931598618626595,0.014298995025455952,0.07982960343360901,0.07796616107225418,0.017783137038350105,0.024107033386826515,-0.10933119803667068,-0.05307862535119057,0.07411030679941177,-0.04078507423400879,0.08111963421106339,-0.12123575806617737,-0.0552791953086853,-0.11504223942756653,0.01848517917096615,0.09406036138534546,0.06108697131276131,0.009354936890304089,-0.1067441925406456,-0.02809390053153038,-0.009934011846780777,0.036926742643117905,0.02353154681622982,0.08751264959573746,-0.08578414469957352,-0.036346204578876495,0.05657976493239403,0.03980240598320961,-0.044659439474344254,-0.004436645656824112,0.009646294638514519,0.12402692437171936,-0.0023571376223117113,0.04096568748354912,0.033920638263225555,-0.02098006010055542,-0.043845970183610916
 0.031191963702440262,-0.07569946348667145,-0.10064273327589035,0.00047684949822723866,-0.08977539092302322,0.001666680327616632,-0.04124573990702629,0.08716605603694916,0.020929712802171707,0.0016613892512395978,-0.004113989416509867,0.0525674894452095,0.04058551415801048,0.001187684596516192,0.08791486918926239,0.036798764020204544,-0.07616738975048065,-0.09171020984649658,0.025338394567370415,-0.09792644530534744,-0.03194664418697357,0.05054939165711403,-0.07926969230175018,-0.05921543762087822,0.009828522801399231,-0.04501819610595703,0.060606878250837326,-0.005133399739861488,0.09735903143882751,-0.07605846971273422,0.007922414690256119,-0.05538585036993027,0.04159264639019966,-0.07254038006067276,-0.010355513542890549,0.10479363054037094,0.014688342809677124,-0.05571133270859718,-0.05708935111761093,0.021352583542466164,-0.015606776811182499,-0.0631326213479042,-0.04248970374464989,0.059557389467954636,0.06495048105716705,0.12346478551626205,-0.06272730976343155,-0.06441011279821396,-0.047820623964071274,-0.07314873486757278,-0.04157567024230957,0.030129166319966316,-0.056573331356048584,0.053063198924064636,-0.002258779015392065,0.028995871543884277,-0.014970982447266579,-0.03111734427511692,-0.0562681145966053,0.06271853297948837,0.024960070848464966,0.150715172290802,0.001976841827854514,-0.040592655539512634,0.09362852573394775,-0.015997381880879402,0.09069668501615524,-0.03331875801086426,-0.03158048167824745,0.05861560255289078,0.03396373987197876,-0.026708342134952545,-0.06894800066947937,0.002174758119508624,-0.060310326516628265,0.02984200231730938,0.06725046783685684,0.06387919187545776,0.10455135256052017,-0.02565827965736389,-0.039314154535532,0.10552532970905304,0.14164620637893677,-0.005344131030142307,0.09595385938882828,0.05238747596740723,-0.04824427515268326,0.03707258030772209,0.029613414779305458,-0.029947100207209587,-0.007196889724582434,0.05992107093334198,0.08125023543834686,0.00838338304311037,-0.04311492666602135,0.08862804621458054,0.08835016191005707,0.04334358498454094,-0.019328922033309937,0.08756905049085617,0.006969046778976917,0.11074629426002502,-0.05967000871896744,0.07999245822429657,-0.12065165489912033,0.0037510348483920097,0.028876585885882378,-0.08412421494722366,-0.027030061930418015,-0.09215821325778961,0.005251387599855661,0.05113175883889198,0.11228511482477188,-0.01723836548626423,-0.04236588627099991,0.08635213971138,-0.03576582297682762,-0.0001232628128491342,0.06814426928758621,0.08781899511814117,-0.06505738943815231,0.046192850917577744,-0.06215779483318329,-0.06957265734672546,-0.09555640816688538,-0.04985639452934265,-0.07713430374860764,-0.04230181500315666
 0.11036140471696854,0.10120351612567902,-0.06294279545545578,-0.06290765851736069,0.09729273617267609,-0.028344880789518356,-0.05472073704004288,0.036280762404203415,0.02305447869002819,0.08047924935817719,0.06354831904172897,0.02444778010249138,-0.01553342491388321,0.0037266877479851246,0.046227872371673584,-0.004408199340105057,0.04951141029596329,-0.051295459270477295,0.0054955314844846725,0.00920815672725439,0.015394953079521656,-0.03933278098702431,-0.14800626039505005,0.005609930958598852,-0.035512976348400116,-0.08241172879934311,0.05852449685335159,-0.07540030777454376,0.009934240020811558,-0.09243694692850113,0.10125131160020828,0.06303399056196213,0.02478180080652237,0.09110584110021591,-0.06189994141459465,-0.11669433861970901,-0.018137864768505096,-0.040995124727487564,-0.03287780284881592,0.026608502492308617,-0.07146257162094116,0.08370751142501831,0.08314234763383865,-0.08818060159683228,0.1233670562505722,0.02528166025876999,0.006882297340780497,0.16359758377075195,0.014726834371685982,-0.049282465130090714,0.07650000602006912,0.12531507015228271,0.007188520859926939,-0.03936666250228882,-0.024891003966331482,-0.025518454611301422,0.11621307581663132,-0.05788755044341087,-0.1330799013376236,0.0679454654455185,-0.0658048540353775,0.10893203318119049,-0.02847890369594097,-0.024257706478238106,0.024382032454013824,-0.024890625849366188,0.09048276394605637,0.09322360157966614,0.08144471794366837,0.04523999243974686,-0.06334015727043152,0.07492697238922119,-0.026288313791155815,0.04471655189990997,-0.039581116288900375,0.010220538824796677,0.03655972331762314,-0.0001647133904043585,-0.008183606900274754,-0.0831994116306305,0.059081070125103,0.018045464530587196,0.07559442520141602,-0.0032540096435695887,-0.054813843220472336,-0.051108527928590775,-0.06409167498350143,0.005530582740902901,-0.11850172281265259,0.04477166756987572,0.005212830379605293,0.032432857900857925,-0.02182149514555931,-0.0944536030292511,-0.0729023888707161,-0.019192291423678398,-0.004799118731170893,-0.04418416693806648,-0.015612680464982986,0.07700569927692413,0.03228623792529106,0.12818323075771332,0.012941456399857998,-0.0711507573723793,-0.01720326580107212,-0.05601891875267029,0.06597407907247543,-0.06101324036717415,-0.007723386865109205,-0.07602927088737488,0.13248100876808167,0.0441584587097168,0.05829305574297905,-0.03640526160597801,-0.09992869943380356,0.09477323293685913,-0.02437272109091282,-0.02593706175684929,0.0849333330988884,-0.06803151965141296,-0.027225984260439873,-0.001179638784378767,0.06190606951713562,0.043184563517570496,-0.11659593880176544,-0.08068874478340149,-0.08012772351503372,-0.15229131281375885
 -0.00534733897075057,0.022733049467206,-0.015725236386060715,0.10166633129119873,-0.05827709659934044,0.05153173208236694,-0.04445304721593857,0.06504456698894501,0.06422114372253418,0.055148035287857056,-0.04162653163075447,0.022160163149237633,-0.013910630717873573,-0.04063413664698601,0.11663677543401718,0.04475550353527069,-0.047050319612026215,-0.002521999878808856,0.010271003469824791,-0.09966885298490524,0.05046644061803818,0.03687193989753723,-0.0008870365563780069,-0.06007879972457886,-0.04172895476222038,0.003627123311161995,0.09094566106796265,-0.08138665556907654,0.006224147044122219,-0.00020604005840141326,0.021477708593010902,-0.031971074640750885,-0.0933474600315094,0.022859031334519386,-0.03737817332148552,-0.05558556690812111,0.02441413328051567,-0.03446699678897858,-0.02489265240728855,0.08024921268224716,-0.03009650483727455,-0.010713107883930206,0.004926091525703669,0.010345174930989742,0.0869854986667633,-0.03267790377140045,-0.024018684402108192,0.04075992479920387,-0.03292356804013252,-0.03043803572654724,-0.05894738435745239,0.1356593817472458,0.08522128313779831,-0.07030177861452103,-0.017633453011512756,0.06049707904458046,0.08390303701162338,0.04728822037577629,-0.08375284075737,0.041269268840551376,0.03157071769237518,0.1257583647966385,-0.05678988993167877,-0.03354739025235176,0.003845578758046031,-0.05890709161758423,-0.008172149769961834,0.09661301970481873,-0.01044008880853653,-0.07715289294719696,0.02845095470547676,0.07183840870857239,0.03933408111333847,0.10508834570646286,-0.09106136858463287,0.0032066465355455875,-0.03433194383978844,0.035016655921936035,0.08078224211931229,-0.005724635906517506,0.06382496654987335,-0.047943394631147385,0.09769360721111298,0.03421761468052864,0.011269119568169117,-0.037752214819192886,-0.09871987998485565,0.007241154555231333,-0.06513872742652893,0.11796301603317261,-0.035035815089941025,0.07008877396583557,0.09624390304088593,-0.06424185633659363,-0.09952955693006516,-0.020254502072930336,0.02984195575118065,-0.06018581613898277,0.046613745391368866,0.005787626840174198,-0.08307293802499771,0.10193769633769989,-0.011170748621225357,0.08467160910367966,-0.032927922904491425,-0.021728351712226868,0.01574746146798134,0.023601459339261055,-0.02618473768234253,-0.11885020136833191,0.018540499731898308,0.027529830113053322,0.02959558181464672,-0.020866740494966507,0.04196982830762863,0.09465908259153366,-0.05155402794480324,0.04559333622455597,0.14756760001182556,0.07214006781578064,-0.060923021286726,-0.03446473181247711,-0.01948092319071293,0.03931868448853493,-0.026578586548566818,0.08784905076026917,-0.0936674103140831,-0.1477443277835846
 0.06065826117992401,-0.054348718374967575,0.018270662054419518,0.0006882980815134943,0.0005051319021731615,-0.00185905653052032,-0.14479614794254303,0.05911913886666298,0.0334247387945652,-0.10853753983974457,-0.05425045266747475,0.00712196808308363,0.05054150149226189,-0.023933157324790955,-0.07469162344932556,0.0804508700966835,-0.01658664643764496,0.06204536184668541,-0.03628157451748848,0.01726851426064968,-0.11746024340391159,-0.023290030658245087,-0.07215079665184021,0.0028402451425790787,0.10088195651769638,-0.16631300747394562,0.08184502273797989,0.025365086272358894,0.06091831624507904,-0.010374078527092934,0.0809839591383934,-0.07059289515018463,0.06006550043821335,0.031931567937135696,-0.04559330642223358,0.016528092324733734,0.11553990095853806,-0.037576936185359955,-0.04213251546025276,-0.02043396420776844,-0.19238390028476715,0.008587626740336418,-0.027632631361484528,-0.01086016371846199,-0.05144466832280159,0.0718003511428833,0.10676226764917374,-0.04933076351881027,0.011864347383379936,0.007728944532573223,0.035207509994506836,-0.01937139965593815,-0.01562456227838993,0.01495504193007946,-0.048198286443948746,-0.013271162286400795,-0.024612681940197945,0.14640656113624573,-0.044523533433675766,0.058564912527799606,-0.11820369958877563,0.04999133199453354,0.006255063693970442,0.03721581771969795,-0.014180349186062813,-0.06892628222703934,0.016442064195871353,-0.01632808893918991,-0.03160927817225456,0.007120094262063503,0.019776245579123497,0.03749391436576843,0.003825375810265541,0.07254315167665482,-0.012749032117426395,0.006712235510349274,-0.035510044544935226,-0.0638602003455162,-0.021489763632416725,0.07253096997737885,-0.029404710978269577,0.04170849546790123,-0.06167776882648468,-0.03768753260374069,-0.015544485300779343,-0.06950636208057404,-0.08593077212572098,-0.06482311338186264,0.0955035611987114,-0.0012072937097400427,-0.11889049410820007,-0.0016676345840096474,-0.00689285434782505,-0.04896282032132149,0.09188056737184525,-0.037191376090049744,0.08519575744867325,0.03928020969033241,-0.010351654142141342,0.022297456860542297,-0.016172587871551514,0.13746337592601776,-0.1014709547162056,0.09743355214595795,-0.016642266884446144,0.08732262998819351,-0.07693913578987122,-0.049677733331918716,-0.04693339392542839,-0.12556776404380798,0.11490432173013687,0.026558851823210716,0.14246337115764618,-0.12852045893669128,-0.07272516936063766,-0.09028676897287369,-0.1576741635799408,-0.07746020704507828,0.04217018932104111,0.10456595569849014,-0.0014868290163576603,0.046396877616643906,-0.01679997518658638,0.0019767945632338524,-0.10106263309717178,0.03881368786096573,-0.032502517104148865,-0.09953231364488602
 0.08721911162137985,-0.03601472079753876,-0.09019124507904053,-0.013885063119232655,-0.0696987733244896,-0.0745941698551178,-0.011951222084462643,0.043703142553567886,0.03984968364238739,-0.04712478443980217,0.007333899382501841,0.07414332777261734,-0.013664467260241508,0.046871013939380646,0.08768647164106369,0.09591227769851685,0.008499468676745892,-0.05076490715146065,0.009826107881963253,0.04960769787430763,-0.026867952197790146,0.09906096756458282,-0.009297659620642662,0.036007996648550034,-0.06250050663948059,-0.0731477439403534,-0.0877201110124588,-0.058159518986940384,-0.03234463557600975,-0.05213396996259689,0.0977693647146225,-0.09628596156835556,-0.09228780120611191,0.035640377551317215,-0.0070916940458118916,0.01634564809501171,-0.054070327430963516,-0.04357995092868805,-0.0862637534737587,0.08579475432634354,-0.06733299791812897,0.06837053596973419,-0.01775718480348587,0.05649016052484512,-0.00972592644393444,0.00694412924349308,-0.013410544954240322,-0.008036223240196705,0.0847720354795456,0.04687809944152832,-0.05131927505135536,0.07485035806894302,0.027983255684375763,-0.04654613137245178,0.02634778432548046,0.014846056699752808,-0.06530962884426117,0.0021943883039057255,0.021698402240872383,-0.0380699597299099,-0.0734577476978302,0.00712374784052372,0.05042232945561409,-0.03718876466155052,-0.012953097932040691,0.03433237969875336,0.1180540919303894,0.09223145246505737,0.06788666546344757,0.019394882023334503,0.04342426732182503,0.04935403913259506,-0.10979665815830231,0.07170140743255615,-0.05773264542222023,-0.060005106031894684,0.08918748795986176,-0.016126101836562157,0.1014925092458725,0.020244626328349113,-0.041935995221138,0.018207894638180733,0.09135784953832626,0.05830787122249603,-0.061273980885744095,-0.09015098959207535,0.03956930711865425,0.0968485176563263,-0.07149811089038849,-0.029846101999282837,-0.024275019764900208,0.03303224593400955,-0.01983032003045082,0.09248345345258713,-0.0041498709470033646,-0.04910542070865631,0.0673597976565361,0.03290858864784241,0.07403737306594849,0.03127721697092056,0.038118574768304825,0.12750081717967987,-0.025025581941008568,-0.039841603487730026,0.04220932349562645,-0.015035992488265038,-0.06450454145669937,-0.057674139738082886,-0.04637949541211128,-0.010585032403469086,0.08763406425714493,0.08545313775539398,0.019953111186623573,0.05121598765254021,-0.08117666095495224,-0.04191454499959946,0.027958597987890244,-0.046064343303442,0.042183127254247665,-0.023748502135276794,-0.010698328725993633,0.05430775508284569,0.07694534957408905,-0.025952095165848732,-0.1498575657606125,0.08041083812713623,-0.10010376572608948,-0.06485679000616074
