-0.014121257700026035
-0.06468906253576279
0.024690981954336166
0.007173261605203152
0.004469796549528837
-0.018580667674541473
-0.03093525767326355
0.007481977343559265
0.01065815705806017
0.02550322376191616
-0.06675247848033905
-0.03270547464489937
-0.017571989446878433
-0.052266329526901245
0.029497364535927773
0.05585566163063049
0.03255373239517212
-0.0559290274977684
-0.013551166281104088
0.030116485431790352
-0.05291697382926941
0.008432162925601006
-0.01807807758450508
0.017968736588954926
-0.06799563020467758
0.059419408440589905
0.01474908646196127
-0.08285823464393616
0.00013249216135591269
-0.00873593520373106
-0.04347682744264603
-0.008064347319304943
-0.029065707698464394
0.01581515371799469
-0.0423935241997242
-0.049077358096838
0.024034518748521805
0.047182098031044006
-0.02436167001724243
0.10236912220716476
0.010088099166750908
-0.014688119292259216
-0.009013485163450241
0.014885595999658108
-0.04646419733762741
0.018071504309773445
0.022208847105503082
0.03761225938796997
-0.012910286895930767
-0.016934260725975037
0.013035409152507782
0.03912821039557457
0.04188063368201256
0.042964328080415726
-0.0021328795701265335
-0.05375414341688156
-0.061925917863845825
-0.061668913811445236
-0.05439768359065056
0.04177095741033554
0.01467492152005434
0.015619970858097076
0.010228664614260197
0.0352461040019989
0.03465430065989494
0.07067437469959259
-0.00244341348297894
-0.02859535440802574
-0.024162890389561653
-0.011085391975939274
-0.01593174785375595
-0.014472668059170246
0.026936523616313934
0.03626643866300583
0.005219181999564171
0.021947843953967094
-0.06600049138069153
-0.0556880347430706
-0.04065977409482002
-0.007065239828079939
0.017458047717809677
-0.0040450142696499825
0.02261756733059883
-0.0329427532851696
-0.02172912284731865
-0.033512625843286514
0.05362450331449509
-0.002329882001504302
0.02533760294318199
0.049592725932598114
-0.013753141276538372
0.040349576622247696
-0.035926252603530884
-0.02371460199356079
-0.04369625076651573
-0.010946081019937992
0.032134175300598145
0.04219110310077667
0.02483074925839901
-0.01109254825860262
-0.056062109768390656
0.01839875429868698
-0.04517689719796181
0.053985729813575745
0.002790118334814906
-0.039649754762649536
-0.06082972139120102
0.001425967551767826
-0.059214238077402115
-0.008120361715555191
0.03425421193242073
-0.052781131118535995
-0.00615849019959569
0.02990347146987915
0.02963942661881447
0.05776423215866089
0.006198810879141092
-0.06934061646461487
0.0001832831185311079
0.016646213829517365
0.0404399111866951
-0.05901353433728218
0.029987718909978867
0.036343976855278015
0.017831411212682724
0.0008718539029359818
0.057623885571956635
0.028287628665566444
